digraph Tree {
node [shape=box, style="filled, rounded", color="black", fontname=helvetica] ;
edge [fontname=helvetica] ;
0 [label="channel_subCount <= 0.5\ngini = 0.5\nsamples = 1984\nvalue = [1586, 1560]\nclass = 0", fillcolor="#e5813904"] ;
1 [label="official <= 0.5\ngini = 0.43\nsamples = 1211\nvalue = [1335, 605]\nclass = 0", fillcolor="#e581398b"] ;
0 -> 1 [labeldistance=2.5, labelangle=45, headlabel="True"] ;
2 [label="up_time <= 1674.0\ngini = 0.36\nsamples = 1074\nvalue = [1311, 399]\nclass = 0", fillcolor="#e58139b1"] ;
1 -> 2 ;
3 [label="up_time <= 1238.5\ngini = 0.27\nsamples = 869\nvalue = [1164, 223]\nclass = 0", fillcolor="#e58139ce"] ;
2 -> 3 ;
4 [label="log_view <= 11.57\ngini = 0.31\nsamples = 637\nvalue = [835, 194]\nclass = 0", fillcolor="#e58139c4"] ;
3 -> 4 ;
5 [label="audio <= 0.5\ngini = 0.16\nsamples = 537\nvalue = [784, 74]\nclass = 0", fillcolor="#e58139e7"] ;
4 -> 5 ;
6 [label="music video <= 0.5\ngini = 0.16\nsamples = 529\nvalue = [774, 74]\nclass = 0", fillcolor="#e58139e7"] ;
5 -> 6 ;
7 [label="music <= 0.5\ngini = 0.16\nsamples = 528\nvalue = [774, 72]\nclass = 0", fillcolor="#e58139e7"] ;
6 -> 7 ;
8 [label="log_view <= 7.75\ngini = 0.16\nsamples = 525\nvalue = [771, 72]\nclass = 0", fillcolor="#e58139e7"] ;
7 -> 8 ;
9 [label="up_time <= 1218.0\ngini = 0.08\nsamples = 278\nvalue = [426, 18]\nclass = 0", fillcolor="#e58139f4"] ;
8 -> 9 ;
10 [label="up_time <= 667.5\ngini = 0.07\nsamples = 272\nvalue = [420, 16]\nclass = 0", fillcolor="#e58139f5"] ;
9 -> 10 ;
11 [label="up_time <= 665.5\ngini = 0.1\nsamples = 163\nvalue = [252, 14]\nclass = 0", fillcolor="#e58139f1"] ;
10 -> 11 ;
12 [label="log_view <= 4.47\ngini = 0.07\nsamples = 154\nvalue = [247, 10]\nclass = 0", fillcolor="#e58139f5"] ;
11 -> 12 ;
13 [label="gini = 0.0\nsamples = 45\nvalue = [72, 0]\nclass = 0", fillcolor="#e58139ff"] ;
12 -> 13 ;
14 [label="log_view <= 4.67\ngini = 0.1\nsamples = 109\nvalue = [175, 10]\nclass = 0", fillcolor="#e58139f0"] ;
12 -> 14 ;
15 [label="up_time <= 334.5\ngini = 0.48\nsamples = 2\nvalue = [2, 3]\nclass = 1", fillcolor="#399de555"] ;
14 -> 15 ;
16 [label="gini = 0.0\nsamples = 1\nvalue = [2, 0]\nclass = 0", fillcolor="#e58139ff"] ;
15 -> 16 ;
17 [label="gini = 0.0\nsamples = 1\nvalue = [0, 3]\nclass = 1", fillcolor="#399de5ff"] ;
15 -> 17 ;
18 [label="log_view <= 5.8\ngini = 0.07\nsamples = 107\nvalue = [173, 7]\nclass = 0", fillcolor="#e58139f5"] ;
14 -> 18 ;
19 [label="gini = 0.0\nsamples = 31\nvalue = [50, 0]\nclass = 0", fillcolor="#e58139ff"] ;
18 -> 19 ;
20 [label="up_time <= 640.5\ngini = 0.1\nsamples = 76\nvalue = [123, 7]\nclass = 0", fillcolor="#e58139f0"] ;
18 -> 20 ;
21 [label="log_view <= 6.16\ngini = 0.08\nsamples = 74\nvalue = [122, 5]\nclass = 0", fillcolor="#e58139f5"] ;
20 -> 21 ;
22 [label="up_time <= 168.5\ngini = 0.17\nsamples = 12\nvalue = [20, 2]\nclass = 0", fillcolor="#e58139e6"] ;
21 -> 22 ;
23 [label="up_time <= 101.5\ngini = 0.44\nsamples = 2\nvalue = [1, 2]\nclass = 1", fillcolor="#399de57f"] ;
22 -> 23 ;
24 [label="gini = 0.0\nsamples = 1\nvalue = [1, 0]\nclass = 0", fillcolor="#e58139ff"] ;
23 -> 24 ;
25 [label="gini = 0.0\nsamples = 1\nvalue = [0, 2]\nclass = 1", fillcolor="#399de5ff"] ;
23 -> 25 ;
26 [label="gini = 0.0\nsamples = 10\nvalue = [19, 0]\nclass = 0", fillcolor="#e58139ff"] ;
22 -> 26 ;
27 [label="log_view <= 6.81\ngini = 0.06\nsamples = 62\nvalue = [102, 3]\nclass = 0", fillcolor="#e58139f8"] ;
21 -> 27 ;
28 [label="gini = 0.0\nsamples = 25\nvalue = [49, 0]\nclass = 0", fillcolor="#e58139ff"] ;
27 -> 28 ;
29 [label="log_view <= 6.83\ngini = 0.1\nsamples = 37\nvalue = [53, 3]\nclass = 0", fillcolor="#e58139f1"] ;
27 -> 29 ;
30 [label="gini = 0.0\nsamples = 1\nvalue = [0, 1]\nclass = 1", fillcolor="#399de5ff"] ;
29 -> 30 ;
31 [label="up_time <= 206.5\ngini = 0.07\nsamples = 36\nvalue = [53, 2]\nclass = 0", fillcolor="#e58139f5"] ;
29 -> 31 ;
32 [label="up_time <= 194.0\ngini = 0.19\nsamples = 15\nvalue = [17, 2]\nclass = 0", fillcolor="#e58139e1"] ;
31 -> 32 ;
33 [label="log_view <= 7.0\ngini = 0.12\nsamples = 13\nvalue = [15, 1]\nclass = 0", fillcolor="#e58139ee"] ;
32 -> 33 ;
34 [label="log_view <= 6.93\ngini = 0.5\nsamples = 2\nvalue = [1, 1]\nclass = 0", fillcolor="#e5813900"] ;
33 -> 34 ;
35 [label="gini = 0.0\nsamples = 1\nvalue = [1, 0]\nclass = 0", fillcolor="#e58139ff"] ;
34 -> 35 ;
36 [label="gini = 0.0\nsamples = 1\nvalue = [0, 1]\nclass = 1", fillcolor="#399de5ff"] ;
34 -> 36 ;
37 [label="gini = 0.0\nsamples = 11\nvalue = [14, 0]\nclass = 0", fillcolor="#e58139ff"] ;
33 -> 37 ;
38 [label="log_view <= 7.41\ngini = 0.44\nsamples = 2\nvalue = [2, 1]\nclass = 0", fillcolor="#e581397f"] ;
32 -> 38 ;
39 [label="gini = 0.0\nsamples = 1\nvalue = [2, 0]\nclass = 0", fillcolor="#e58139ff"] ;
38 -> 39 ;
40 [label="gini = 0.0\nsamples = 1\nvalue = [0, 1]\nclass = 1", fillcolor="#399de5ff"] ;
38 -> 40 ;
41 [label="gini = 0.0\nsamples = 21\nvalue = [36, 0]\nclass = 0", fillcolor="#e58139ff"] ;
31 -> 41 ;
42 [label="log_view <= 6.26\ngini = 0.44\nsamples = 2\nvalue = [1, 2]\nclass = 1", fillcolor="#399de57f"] ;
20 -> 42 ;
43 [label="gini = 0.0\nsamples = 1\nvalue = [0, 2]\nclass = 1", fillcolor="#399de5ff"] ;
42 -> 43 ;
44 [label="gini = 0.0\nsamples = 1\nvalue = [1, 0]\nclass = 0", fillcolor="#e58139ff"] ;
42 -> 44 ;
45 [label="up_time <= 666.5\ngini = 0.49\nsamples = 9\nvalue = [5, 4]\nclass = 0", fillcolor="#e5813933"] ;
11 -> 45 ;
46 [label="log_view <= 7.17\ngini = 0.44\nsamples = 3\nvalue = [2, 1]\nclass = 0", fillcolor="#e581397f"] ;
45 -> 46 ;
47 [label="gini = 0.0\nsamples = 2\nvalue = [2, 0]\nclass = 0", fillcolor="#e58139ff"] ;
46 -> 47 ;
48 [label="gini = 0.0\nsamples = 1\nvalue = [0, 1]\nclass = 1", fillcolor="#399de5ff"] ;
46 -> 48 ;
49 [label="log_view <= 4.73\ngini = 0.5\nsamples = 6\nvalue = [3, 3]\nclass = 0", fillcolor="#e5813900"] ;
45 -> 49 ;
50 [label="gini = 0.0\nsamples = 1\nvalue = [1, 0]\nclass = 0", fillcolor="#e58139ff"] ;
49 -> 50 ;
51 [label="log_view <= 6.14\ngini = 0.48\nsamples = 5\nvalue = [2, 3]\nclass = 1", fillcolor="#399de555"] ;
49 -> 51 ;
52 [label="gini = 0.0\nsamples = 2\nvalue = [0, 2]\nclass = 1", fillcolor="#399de5ff"] ;
51 -> 52 ;
53 [label="log_view <= 6.31\ngini = 0.44\nsamples = 3\nvalue = [2, 1]\nclass = 0", fillcolor="#e581397f"] ;
51 -> 53 ;
54 [label="gini = 0.0\nsamples = 1\nvalue = [1, 0]\nclass = 0", fillcolor="#e58139ff"] ;
53 -> 54 ;
55 [label="log_view <= 6.82\ngini = 0.5\nsamples = 2\nvalue = [1, 1]\nclass = 0", fillcolor="#e5813900"] ;
53 -> 55 ;
56 [label="gini = 0.0\nsamples = 1\nvalue = [0, 1]\nclass = 1", fillcolor="#399de5ff"] ;
55 -> 56 ;
57 [label="gini = 0.0\nsamples = 1\nvalue = [1, 0]\nclass = 0", fillcolor="#e58139ff"] ;
55 -> 57 ;
58 [label="log_view <= 6.72\ngini = 0.02\nsamples = 109\nvalue = [168, 2]\nclass = 0", fillcolor="#e58139fc"] ;
10 -> 58 ;
59 [label="gini = 0.0\nsamples = 83\nvalue = [134, 0]\nclass = 0", fillcolor="#e58139ff"] ;
58 -> 59 ;
60 [label="log_view <= 6.8\ngini = 0.1\nsamples = 26\nvalue = [34, 2]\nclass = 0", fillcolor="#e58139f0"] ;
58 -> 60 ;
61 [label="gini = 0.0\nsamples = 2\nvalue = [0, 2]\nclass = 1", fillcolor="#399de5ff"] ;
60 -> 61 ;
62 [label="gini = 0.0\nsamples = 24\nvalue = [34, 0]\nclass = 0", fillcolor="#e58139ff"] ;
60 -> 62 ;
63 [label="up_time <= 1225.0\ngini = 0.38\nsamples = 6\nvalue = [6, 2]\nclass = 0", fillcolor="#e58139aa"] ;
9 -> 63 ;
64 [label="log_view <= 6.46\ngini = 0.44\nsamples = 2\nvalue = [1, 2]\nclass = 1", fillcolor="#399de57f"] ;
63 -> 64 ;
65 [label="gini = 0.0\nsamples = 1\nvalue = [0, 2]\nclass = 1", fillcolor="#399de5ff"] ;
64 -> 65 ;
66 [label="gini = 0.0\nsamples = 1\nvalue = [1, 0]\nclass = 0", fillcolor="#e58139ff"] ;
64 -> 66 ;
67 [label="gini = 0.0\nsamples = 4\nvalue = [5, 0]\nclass = 0", fillcolor="#e58139ff"] ;
63 -> 67 ;
68 [label="log_view <= 7.76\ngini = 0.23\nsamples = 247\nvalue = [345, 54]\nclass = 0", fillcolor="#e58139d7"] ;
8 -> 68 ;
69 [label="gini = 0.0\nsamples = 1\nvalue = [0, 2]\nclass = 1", fillcolor="#399de5ff"] ;
68 -> 69 ;
70 [label="up_time <= 134.0\ngini = 0.23\nsamples = 246\nvalue = [345, 52]\nclass = 0", fillcolor="#e58139d9"] ;
68 -> 70 ;
71 [label="log_view <= 8.4\ngini = 0.43\nsamples = 32\nvalue = [35, 16]\nclass = 0", fillcolor="#e581398a"] ;
70 -> 71 ;
72 [label="log_view <= 7.93\ngini = 0.44\nsamples = 8\nvalue = [4, 8]\nclass = 1", fillcolor="#399de57f"] ;
71 -> 72 ;
73 [label="gini = 0.0\nsamples = 1\nvalue = [1, 0]\nclass = 0", fillcolor="#e58139ff"] ;
72 -> 73 ;
74 [label="up_time <= 53.0\ngini = 0.4\nsamples = 7\nvalue = [3, 8]\nclass = 1", fillcolor="#399de59f"] ;
72 -> 74 ;
75 [label="gini = 0.0\nsamples = 1\nvalue = [1, 0]\nclass = 0", fillcolor="#e58139ff"] ;
74 -> 75 ;
76 [label="up_time <= 88.5\ngini = 0.32\nsamples = 6\nvalue = [2, 8]\nclass = 1", fillcolor="#399de5bf"] ;
74 -> 76 ;
77 [label="gini = 0.0\nsamples = 3\nvalue = [0, 6]\nclass = 1", fillcolor="#399de5ff"] ;
76 -> 77 ;
78 [label="up_time <= 110.5\ngini = 0.5\nsamples = 3\nvalue = [2, 2]\nclass = 0", fillcolor="#e5813900"] ;
76 -> 78 ;
79 [label="gini = 0.0\nsamples = 2\nvalue = [2, 0]\nclass = 0", fillcolor="#e58139ff"] ;
78 -> 79 ;
80 [label="gini = 0.0\nsamples = 1\nvalue = [0, 2]\nclass = 1", fillcolor="#399de5ff"] ;
78 -> 80 ;
81 [label="log_view <= 9.11\ngini = 0.33\nsamples = 24\nvalue = [31, 8]\nclass = 0", fillcolor="#e58139bd"] ;
71 -> 81 ;
82 [label="log_view <= 9.0\ngini = 0.44\nsamples = 13\nvalue = [14, 7]\nclass = 0", fillcolor="#e581397f"] ;
81 -> 82 ;
83 [label="up_time <= 42.5\ngini = 0.32\nsamples = 10\nvalue = [12, 3]\nclass = 0", fillcolor="#e58139bf"] ;
82 -> 83 ;
84 [label="gini = 0.0\nsamples = 2\nvalue = [0, 3]\nclass = 1", fillcolor="#399de5ff"] ;
83 -> 84 ;
85 [label="gini = 0.0\nsamples = 8\nvalue = [12, 0]\nclass = 0", fillcolor="#e58139ff"] ;
83 -> 85 ;
86 [label="up_time <= 116.0\ngini = 0.44\nsamples = 3\nvalue = [2, 4]\nclass = 1", fillcolor="#399de57f"] ;
82 -> 86 ;
87 [label="gini = 0.0\nsamples = 1\nvalue = [2, 0]\nclass = 0", fillcolor="#e58139ff"] ;
86 -> 87 ;
88 [label="gini = 0.0\nsamples = 2\nvalue = [0, 4]\nclass = 1", fillcolor="#399de5ff"] ;
86 -> 88 ;
89 [label="up_time <= 46.0\ngini = 0.1\nsamples = 11\nvalue = [17, 1]\nclass = 0", fillcolor="#e58139f0"] ;
81 -> 89 ;
90 [label="log_view <= 10.73\ngini = 0.32\nsamples = 4\nvalue = [4, 1]\nclass = 0", fillcolor="#e58139bf"] ;
89 -> 90 ;
91 [label="gini = 0.0\nsamples = 2\nvalue = [3, 0]\nclass = 0", fillcolor="#e58139ff"] ;
90 -> 91 ;
92 [label="up_time <= 35.5\ngini = 0.5\nsamples = 2\nvalue = [1, 1]\nclass = 0", fillcolor="#e5813900"] ;
90 -> 92 ;
93 [label="gini = 0.0\nsamples = 1\nvalue = [1, 0]\nclass = 0", fillcolor="#e58139ff"] ;
92 -> 93 ;
94 [label="gini = 0.0\nsamples = 1\nvalue = [0, 1]\nclass = 1", fillcolor="#399de5ff"] ;
92 -> 94 ;
95 [label="gini = 0.0\nsamples = 7\nvalue = [13, 0]\nclass = 0", fillcolor="#e58139ff"] ;
89 -> 95 ;
96 [label="log_view <= 10.22\ngini = 0.19\nsamples = 214\nvalue = [310, 36]\nclass = 0", fillcolor="#e58139e1"] ;
70 -> 96 ;
97 [label="up_time <= 965.5\ngini = 0.12\nsamples = 156\nvalue = [237, 16]\nclass = 0", fillcolor="#e58139ee"] ;
96 -> 97 ;
98 [label="up_time <= 266.0\ngini = 0.08\nsamples = 130\nvalue = [198, 9]\nclass = 0", fillcolor="#e58139f3"] ;
97 -> 98 ;
99 [label="up_time <= 262.5\ngini = 0.16\nsamples = 27\nvalue = [41, 4]\nclass = 0", fillcolor="#e58139e6"] ;
98 -> 99 ;
100 [label="log_view <= 8.6\ngini = 0.05\nsamples = 25\nvalue = [38, 1]\nclass = 0", fillcolor="#e58139f8"] ;
99 -> 100 ;
101 [label="up_time <= 187.0\ngini = 0.12\nsamples = 12\nvalue = [14, 1]\nclass = 0", fillcolor="#e58139ed"] ;
100 -> 101 ;
102 [label="up_time <= 179.5\ngini = 0.32\nsamples = 3\nvalue = [4, 1]\nclass = 0", fillcolor="#e58139bf"] ;
101 -> 102 ;
103 [label="gini = 0.0\nsamples = 2\nvalue = [4, 0]\nclass = 0", fillcolor="#e58139ff"] ;
102 -> 103 ;
104 [label="gini = 0.0\nsamples = 1\nvalue = [0, 1]\nclass = 1", fillcolor="#399de5ff"] ;
102 -> 104 ;
105 [label="gini = 0.0\nsamples = 9\nvalue = [10, 0]\nclass = 0", fillcolor="#e58139ff"] ;
101 -> 105 ;
106 [label="gini = 0.0\nsamples = 13\nvalue = [24, 0]\nclass = 0", fillcolor="#e58139ff"] ;
100 -> 106 ;
107 [label="log_view <= 8.9\ngini = 0.5\nsamples = 2\nvalue = [3, 3]\nclass = 0", fillcolor="#e5813900"] ;
99 -> 107 ;
108 [label="gini = 0.0\nsamples = 1\nvalue = [0, 3]\nclass = 1", fillcolor="#399de5ff"] ;
107 -> 108 ;
109 [label="gini = 0.0\nsamples = 1\nvalue = [3, 0]\nclass = 0", fillcolor="#e58139ff"] ;
107 -> 109 ;
110 [label="up_time <= 690.5\ngini = 0.06\nsamples = 103\nvalue = [157, 5]\nclass = 0", fillcolor="#e58139f7"] ;
98 -> 110 ;
111 [label="log_view <= 9.84\ngini = 0.03\nsamples = 74\nvalue = [118, 2]\nclass = 0", fillcolor="#e58139fb"] ;
110 -> 111 ;
112 [label="gini = 0.0\nsamples = 62\nvalue = [104, 0]\nclass = 0", fillcolor="#e58139ff"] ;
111 -> 112 ;
113 [label="up_time <= 554.0\ngini = 0.22\nsamples = 12\nvalue = [14, 2]\nclass = 0", fillcolor="#e58139db"] ;
111 -> 113 ;
114 [label="up_time <= 543.0\ngini = 0.41\nsamples = 6\nvalue = [5, 2]\nclass = 0", fillcolor="#e5813999"] ;
113 -> 114 ;
115 [label="gini = 0.0\nsamples = 5\nvalue = [5, 0]\nclass = 0", fillcolor="#e58139ff"] ;
114 -> 115 ;
116 [label="gini = 0.0\nsamples = 1\nvalue = [0, 2]\nclass = 1", fillcolor="#399de5ff"] ;
114 -> 116 ;
117 [label="gini = 0.0\nsamples = 6\nvalue = [9, 0]\nclass = 0", fillcolor="#e58139ff"] ;
113 -> 117 ;
118 [label="up_time <= 693.5\ngini = 0.13\nsamples = 29\nvalue = [39, 3]\nclass = 0", fillcolor="#e58139eb"] ;
110 -> 118 ;
119 [label="log_view <= 8.91\ngini = 0.47\nsamples = 7\nvalue = [5, 3]\nclass = 0", fillcolor="#e5813966"] ;
118 -> 119 ;
120 [label="log_view <= 7.88\ngini = 0.38\nsamples = 3\nvalue = [1, 3]\nclass = 1", fillcolor="#399de5aa"] ;
119 -> 120 ;
121 [label="gini = 0.0\nsamples = 1\nvalue = [0, 2]\nclass = 1", fillcolor="#399de5ff"] ;
120 -> 121 ;
122 [label="log_view <= 8.39\ngini = 0.5\nsamples = 2\nvalue = [1, 1]\nclass = 0", fillcolor="#e5813900"] ;
120 -> 122 ;
123 [label="gini = 0.0\nsamples = 1\nvalue = [1, 0]\nclass = 0", fillcolor="#e58139ff"] ;
122 -> 123 ;
124 [label="gini = 0.0\nsamples = 1\nvalue = [0, 1]\nclass = 1", fillcolor="#399de5ff"] ;
122 -> 124 ;
125 [label="gini = 0.0\nsamples = 4\nvalue = [4, 0]\nclass = 0", fillcolor="#e58139ff"] ;
119 -> 125 ;
126 [label="gini = 0.0\nsamples = 22\nvalue = [34, 0]\nclass = 0", fillcolor="#e58139ff"] ;
118 -> 126 ;
127 [label="up_time <= 981.5\ngini = 0.26\nsamples = 26\nvalue = [39, 7]\nclass = 0", fillcolor="#e58139d1"] ;
97 -> 127 ;
128 [label="up_time <= 979.5\ngini = 0.49\nsamples = 4\nvalue = [4, 5]\nclass = 1", fillcolor="#399de533"] ;
127 -> 128 ;
129 [label="log_view <= 8.55\ngini = 0.32\nsamples = 3\nvalue = [4, 1]\nclass = 0", fillcolor="#e58139bf"] ;
128 -> 129 ;
130 [label="gini = 0.0\nsamples = 1\nvalue = [2, 0]\nclass = 0", fillcolor="#e58139ff"] ;
129 -> 130 ;
131 [label="up_time <= 975.0\ngini = 0.44\nsamples = 2\nvalue = [2, 1]\nclass = 0", fillcolor="#e581397f"] ;
129 -> 131 ;
132 [label="gini = 0.0\nsamples = 1\nvalue = [0, 1]\nclass = 1", fillcolor="#399de5ff"] ;
131 -> 132 ;
133 [label="gini = 0.0\nsamples = 1\nvalue = [2, 0]\nclass = 0", fillcolor="#e58139ff"] ;
131 -> 133 ;
134 [label="gini = 0.0\nsamples = 1\nvalue = [0, 4]\nclass = 1", fillcolor="#399de5ff"] ;
128 -> 134 ;
135 [label="up_time <= 1069.5\ngini = 0.1\nsamples = 22\nvalue = [35, 2]\nclass = 0", fillcolor="#e58139f0"] ;
127 -> 135 ;
136 [label="up_time <= 1030.0\ngini = 0.21\nsamples = 9\nvalue = [15, 2]\nclass = 0", fillcolor="#e58139dd"] ;
135 -> 136 ;
137 [label="up_time <= 1001.0\ngini = 0.12\nsamples = 8\nvalue = [15, 1]\nclass = 0", fillcolor="#e58139ee"] ;
136 -> 137 ;
138 [label="up_time <= 997.5\ngini = 0.24\nsamples = 4\nvalue = [6, 1]\nclass = 0", fillcolor="#e58139d4"] ;
137 -> 138 ;
139 [label="gini = 0.0\nsamples = 2\nvalue = [4, 0]\nclass = 0", fillcolor="#e58139ff"] ;
138 -> 139 ;
140 [label="log_view <= 9.56\ngini = 0.44\nsamples = 2\nvalue = [2, 1]\nclass = 0", fillcolor="#e581397f"] ;
138 -> 140 ;
141 [label="gini = 0.0\nsamples = 1\nvalue = [2, 0]\nclass = 0", fillcolor="#e58139ff"] ;
140 -> 141 ;
142 [label="gini = 0.0\nsamples = 1\nvalue = [0, 1]\nclass = 1", fillcolor="#399de5ff"] ;
140 -> 142 ;
143 [label="gini = 0.0\nsamples = 4\nvalue = [9, 0]\nclass = 0", fillcolor="#e58139ff"] ;
137 -> 143 ;
144 [label="gini = 0.0\nsamples = 1\nvalue = [0, 1]\nclass = 1", fillcolor="#399de5ff"] ;
136 -> 144 ;
145 [label="gini = 0.0\nsamples = 13\nvalue = [20, 0]\nclass = 0", fillcolor="#e58139ff"] ;
135 -> 145 ;
146 [label="up_time <= 899.5\ngini = 0.34\nsamples = 58\nvalue = [73, 20]\nclass = 0", fillcolor="#e58139b9"] ;
96 -> 146 ;
147 [label="up_time <= 651.0\ngini = 0.29\nsamples = 49\nvalue = [65, 14]\nclass = 0", fillcolor="#e58139c8"] ;
146 -> 147 ;
148 [label="up_time <= 622.5\ngini = 0.36\nsamples = 31\nvalue = [38, 12]\nclass = 0", fillcolor="#e58139ae"] ;
147 -> 148 ;
149 [label="log_view <= 10.27\ngini = 0.29\nsamples = 28\nvalue = [38, 8]\nclass = 0", fillcolor="#e58139c9"] ;
148 -> 149 ;
150 [label="gini = 0.0\nsamples = 1\nvalue = [0, 3]\nclass = 1", fillcolor="#399de5ff"] ;
149 -> 150 ;
151 [label="log_view <= 11.35\ngini = 0.21\nsamples = 27\nvalue = [38, 5]\nclass = 0", fillcolor="#e58139dd"] ;
149 -> 151 ;
152 [label="log_view <= 11.0\ngini = 0.06\nsamples = 19\nvalue = [31, 1]\nclass = 0", fillcolor="#e58139f7"] ;
151 -> 152 ;
153 [label="gini = 0.0\nsamples = 13\nvalue = [23, 0]\nclass = 0", fillcolor="#e58139ff"] ;
152 -> 153 ;
154 [label="up_time <= 441.0\ngini = 0.2\nsamples = 6\nvalue = [8, 1]\nclass = 0", fillcolor="#e58139df"] ;
152 -> 154 ;
155 [label="gini = 0.0\nsamples = 2\nvalue = [4, 0]\nclass = 0", fillcolor="#e58139ff"] ;
154 -> 155 ;
156 [label="log_view <= 11.14\ngini = 0.32\nsamples = 4\nvalue = [4, 1]\nclass = 0", fillcolor="#e58139bf"] ;
154 -> 156 ;
157 [label="gini = 0.0\nsamples = 1\nvalue = [0, 1]\nclass = 1", fillcolor="#399de5ff"] ;
156 -> 157 ;
158 [label="gini = 0.0\nsamples = 3\nvalue = [4, 0]\nclass = 0", fillcolor="#e58139ff"] ;
156 -> 158 ;
159 [label="up_time <= 274.5\ngini = 0.46\nsamples = 8\nvalue = [7, 4]\nclass = 0", fillcolor="#e581396d"] ;
151 -> 159 ;
160 [label="gini = 0.0\nsamples = 4\nvalue = [5, 0]\nclass = 0", fillcolor="#e58139ff"] ;
159 -> 160 ;
161 [label="up_time <= 559.5\ngini = 0.44\nsamples = 4\nvalue = [2, 4]\nclass = 1", fillcolor="#399de57f"] ;
159 -> 161 ;
162 [label="log_view <= 11.38\ngini = 0.32\nsamples = 3\nvalue = [1, 4]\nclass = 1", fillcolor="#399de5bf"] ;
161 -> 162 ;
163 [label="gini = 0.0\nsamples = 1\nvalue = [0, 2]\nclass = 1", fillcolor="#399de5ff"] ;
162 -> 163 ;
164 [label="up_time <= 441.5\ngini = 0.44\nsamples = 2\nvalue = [1, 2]\nclass = 1", fillcolor="#399de57f"] ;
162 -> 164 ;
165 [label="gini = 0.0\nsamples = 1\nvalue = [1, 0]\nclass = 0", fillcolor="#e58139ff"] ;
164 -> 165 ;
166 [label="gini = 0.0\nsamples = 1\nvalue = [0, 2]\nclass = 1", fillcolor="#399de5ff"] ;
164 -> 166 ;
167 [label="gini = 0.0\nsamples = 1\nvalue = [1, 0]\nclass = 0", fillcolor="#e58139ff"] ;
161 -> 167 ;
168 [label="gini = 0.0\nsamples = 3\nvalue = [0, 4]\nclass = 1", fillcolor="#399de5ff"] ;
148 -> 168 ;
169 [label="up_time <= 690.5\ngini = 0.13\nsamples = 18\nvalue = [27, 2]\nclass = 0", fillcolor="#e58139ec"] ;
147 -> 169 ;
170 [label="gini = 0.0\nsamples = 5\nvalue = [9, 0]\nclass = 0", fillcolor="#e58139ff"] ;
169 -> 170 ;
171 [label="up_time <= 763.0\ngini = 0.18\nsamples = 13\nvalue = [18, 2]\nclass = 0", fillcolor="#e58139e3"] ;
169 -> 171 ;
172 [label="up_time <= 748.0\ngini = 0.24\nsamples = 8\nvalue = [12, 2]\nclass = 0", fillcolor="#e58139d4"] ;
171 -> 172 ;
173 [label="up_time <= 694.5\ngini = 0.14\nsamples = 7\nvalue = [12, 1]\nclass = 0", fillcolor="#e58139ea"] ;
172 -> 173 ;
174 [label="log_view <= 10.64\ngini = 0.2\nsamples = 3\nvalue = [8, 1]\nclass = 0", fillcolor="#e58139df"] ;
173 -> 174 ;
175 [label="gini = 0.0\nsamples = 1\nvalue = [0, 1]\nclass = 1", fillcolor="#399de5ff"] ;
174 -> 175 ;
176 [label="gini = 0.0\nsamples = 2\nvalue = [8, 0]\nclass = 0", fillcolor="#e58139ff"] ;
174 -> 176 ;
177 [label="gini = 0.0\nsamples = 4\nvalue = [4, 0]\nclass = 0", fillcolor="#e58139ff"] ;
173 -> 177 ;
178 [label="gini = 0.0\nsamples = 1\nvalue = [0, 1]\nclass = 1", fillcolor="#399de5ff"] ;
172 -> 178 ;
179 [label="gini = 0.0\nsamples = 5\nvalue = [6, 0]\nclass = 0", fillcolor="#e58139ff"] ;
171 -> 179 ;
180 [label="up_time <= 1124.0\ngini = 0.49\nsamples = 9\nvalue = [8, 6]\nclass = 0", fillcolor="#e5813940"] ;
146 -> 180 ;
181 [label="up_time <= 994.5\ngini = 0.48\nsamples = 6\nvalue = [4, 6]\nclass = 1", fillcolor="#399de555"] ;
180 -> 181 ;
182 [label="up_time <= 966.5\ngini = 0.44\nsamples = 3\nvalue = [4, 2]\nclass = 0", fillcolor="#e581397f"] ;
181 -> 182 ;
183 [label="gini = 0.0\nsamples = 2\nvalue = [0, 2]\nclass = 1", fillcolor="#399de5ff"] ;
182 -> 183 ;
184 [label="gini = 0.0\nsamples = 1\nvalue = [4, 0]\nclass = 0", fillcolor="#e58139ff"] ;
182 -> 184 ;
185 [label="gini = 0.0\nsamples = 3\nvalue = [0, 4]\nclass = 1", fillcolor="#399de5ff"] ;
181 -> 185 ;
186 [label="gini = 0.0\nsamples = 3\nvalue = [4, 0]\nclass = 0", fillcolor="#e58139ff"] ;
180 -> 186 ;
187 [label="gini = 0.0\nsamples = 3\nvalue = [3, 0]\nclass = 0", fillcolor="#e58139ff"] ;
7 -> 187 ;
188 [label="gini = 0.0\nsamples = 1\nvalue = [0, 2]\nclass = 1", fillcolor="#399de5ff"] ;
6 -> 188 ;
189 [label="gini = 0.0\nsamples = 8\nvalue = [10, 0]\nclass = 0", fillcolor="#e58139ff"] ;
5 -> 189 ;
190 [label="music video <= 0.5\ngini = 0.42\nsamples = 100\nvalue = [51, 120]\nclass = 1", fillcolor="#399de593"] ;
4 -> 190 ;
191 [label="audio <= 0.5\ngini = 0.42\nsamples = 98\nvalue = [51, 116]\nclass = 1", fillcolor="#399de58f"] ;
190 -> 191 ;
192 [label="log_view <= 12.83\ngini = 0.41\nsamples = 96\nvalue = [48, 116]\nclass = 1", fillcolor="#399de595"] ;
191 -> 192 ;
193 [label="video <= 0.5\ngini = 0.49\nsamples = 39\nvalue = [29, 38]\nclass = 1", fillcolor="#399de53c"] ;
192 -> 193 ;
194 [label="up_time <= 799.5\ngini = 0.5\nsamples = 37\nvalue = [29, 35]\nclass = 1", fillcolor="#399de52c"] ;
193 -> 194 ;
195 [label="log_view <= 12.27\ngini = 0.43\nsamples = 23\nvalue = [26, 12]\nclass = 0", fillcolor="#e5813989"] ;
194 -> 195 ;
196 [label="up_time <= 224.5\ngini = 0.49\nsamples = 17\nvalue = [14, 11]\nclass = 0", fillcolor="#e5813937"] ;
195 -> 196 ;
197 [label="gini = 0.0\nsamples = 2\nvalue = [0, 4]\nclass = 1", fillcolor="#399de5ff"] ;
196 -> 197 ;
198 [label="up_time <= 494.0\ngini = 0.44\nsamples = 15\nvalue = [14, 7]\nclass = 0", fillcolor="#e581397f"] ;
196 -> 198 ;
199 [label="up_time <= 339.0\ngini = 0.17\nsamples = 9\nvalue = [10, 1]\nclass = 0", fillcolor="#e58139e6"] ;
198 -> 199 ;
200 [label="gini = 0.0\nsamples = 5\nvalue = [6, 0]\nclass = 0", fillcolor="#e58139ff"] ;
199 -> 200 ;
201 [label="log_view <= 11.58\ngini = 0.32\nsamples = 4\nvalue = [4, 1]\nclass = 0", fillcolor="#e58139bf"] ;
199 -> 201 ;
202 [label="gini = 0.0\nsamples = 1\nvalue = [0, 1]\nclass = 1", fillcolor="#399de5ff"] ;
201 -> 202 ;
203 [label="gini = 0.0\nsamples = 3\nvalue = [4, 0]\nclass = 0", fillcolor="#e58139ff"] ;
201 -> 203 ;
204 [label="log_view <= 11.91\ngini = 0.48\nsamples = 6\nvalue = [4, 6]\nclass = 1", fillcolor="#399de555"] ;
198 -> 204 ;
205 [label="gini = 0.0\nsamples = 3\nvalue = [4, 0]\nclass = 0", fillcolor="#e58139ff"] ;
204 -> 205 ;
206 [label="gini = 0.0\nsamples = 3\nvalue = [0, 6]\nclass = 1", fillcolor="#399de5ff"] ;
204 -> 206 ;
207 [label="up_time <= 490.5\ngini = 0.14\nsamples = 6\nvalue = [12, 1]\nclass = 0", fillcolor="#e58139ea"] ;
195 -> 207 ;
208 [label="log_view <= 12.76\ngini = 0.28\nsamples = 3\nvalue = [5, 1]\nclass = 0", fillcolor="#e58139cc"] ;
207 -> 208 ;
209 [label="gini = 0.0\nsamples = 1\nvalue = [0, 1]\nclass = 1", fillcolor="#399de5ff"] ;
208 -> 209 ;
210 [label="gini = 0.0\nsamples = 2\nvalue = [5, 0]\nclass = 0", fillcolor="#e58139ff"] ;
208 -> 210 ;
211 [label="gini = 0.0\nsamples = 3\nvalue = [7, 0]\nclass = 0", fillcolor="#e58139ff"] ;
207 -> 211 ;
212 [label="up_time <= 1159.5\ngini = 0.2\nsamples = 14\nvalue = [3, 23]\nclass = 1", fillcolor="#399de5de"] ;
194 -> 212 ;
213 [label="up_time <= 940.0\ngini = 0.08\nsamples = 11\nvalue = [1, 22]\nclass = 1", fillcolor="#399de5f3"] ;
212 -> 213 ;
214 [label="log_view <= 11.93\ngini = 0.17\nsamples = 5\nvalue = [1, 10]\nclass = 1", fillcolor="#399de5e6"] ;
213 -> 214 ;
215 [label="gini = 0.0\nsamples = 2\nvalue = [0, 5]\nclass = 1", fillcolor="#399de5ff"] ;
214 -> 215 ;
216 [label="up_time <= 888.0\ngini = 0.28\nsamples = 3\nvalue = [1, 5]\nclass = 1", fillcolor="#399de5cc"] ;
214 -> 216 ;
217 [label="gini = 0.0\nsamples = 2\nvalue = [0, 5]\nclass = 1", fillcolor="#399de5ff"] ;
216 -> 217 ;
218 [label="gini = 0.0\nsamples = 1\nvalue = [1, 0]\nclass = 0", fillcolor="#e58139ff"] ;
216 -> 218 ;
219 [label="gini = 0.0\nsamples = 6\nvalue = [0, 12]\nclass = 1", fillcolor="#399de5ff"] ;
213 -> 219 ;
220 [label="log_view <= 12.12\ngini = 0.44\nsamples = 3\nvalue = [2, 1]\nclass = 0", fillcolor="#e581397f"] ;
212 -> 220 ;
221 [label="gini = 0.0\nsamples = 2\nvalue = [2, 0]\nclass = 0", fillcolor="#e58139ff"] ;
220 -> 221 ;
222 [label="gini = 0.0\nsamples = 1\nvalue = [0, 1]\nclass = 1", fillcolor="#399de5ff"] ;
220 -> 222 ;
223 [label="gini = 0.0\nsamples = 2\nvalue = [0, 3]\nclass = 1", fillcolor="#399de5ff"] ;
193 -> 223 ;
224 [label="log_view <= 14.05\ngini = 0.32\nsamples = 57\nvalue = [19, 78]\nclass = 1", fillcolor="#399de5c1"] ;
192 -> 224 ;
225 [label="video <= 0.5\ngini = 0.16\nsamples = 35\nvalue = [5, 54]\nclass = 1", fillcolor="#399de5e7"] ;
224 -> 225 ;
226 [label="up_time <= 76.0\ngini = 0.17\nsamples = 33\nvalue = [5, 50]\nclass = 1", fillcolor="#399de5e6"] ;
225 -> 226 ;
227 [label="gini = 0.0\nsamples = 1\nvalue = [1, 0]\nclass = 0", fillcolor="#e58139ff"] ;
226 -> 227 ;
228 [label="log_view <= 13.53\ngini = 0.14\nsamples = 32\nvalue = [4, 50]\nclass = 1", fillcolor="#399de5eb"] ;
226 -> 228 ;
229 [label="log_view <= 13.5\ngini = 0.24\nsamples = 19\nvalue = [4, 24]\nclass = 1", fillcolor="#399de5d4"] ;
228 -> 229 ;
230 [label="up_time <= 743.0\ngini = 0.2\nsamples = 18\nvalue = [3, 24]\nclass = 1", fillcolor="#399de5df"] ;
229 -> 230 ;
231 [label="up_time <= 684.0\ngini = 0.28\nsamples = 12\nvalue = [3, 15]\nclass = 1", fillcolor="#399de5cc"] ;
230 -> 231 ;
232 [label="log_view <= 13.13\ngini = 0.21\nsamples = 11\nvalue = [2, 15]\nclass = 1", fillcolor="#399de5dd"] ;
231 -> 232 ;
233 [label="gini = 0.0\nsamples = 7\nvalue = [0, 12]\nclass = 1", fillcolor="#399de5ff"] ;
232 -> 233 ;
234 [label="up_time <= 255.0\ngini = 0.48\nsamples = 4\nvalue = [2, 3]\nclass = 1", fillcolor="#399de555"] ;
232 -> 234 ;
235 [label="gini = 0.0\nsamples = 2\nvalue = [0, 3]\nclass = 1", fillcolor="#399de5ff"] ;
234 -> 235 ;
236 [label="gini = 0.0\nsamples = 2\nvalue = [2, 0]\nclass = 0", fillcolor="#e58139ff"] ;
234 -> 236 ;
237 [label="gini = 0.0\nsamples = 1\nvalue = [1, 0]\nclass = 0", fillcolor="#e58139ff"] ;
231 -> 237 ;
238 [label="gini = 0.0\nsamples = 6\nvalue = [0, 9]\nclass = 1", fillcolor="#399de5ff"] ;
230 -> 238 ;
239 [label="gini = 0.0\nsamples = 1\nvalue = [1, 0]\nclass = 0", fillcolor="#e58139ff"] ;
229 -> 239 ;
240 [label="gini = 0.0\nsamples = 13\nvalue = [0, 26]\nclass = 1", fillcolor="#399de5ff"] ;
228 -> 240 ;
241 [label="gini = 0.0\nsamples = 2\nvalue = [0, 4]\nclass = 1", fillcolor="#399de5ff"] ;
225 -> 241 ;
242 [label="video <= 0.5\ngini = 0.47\nsamples = 22\nvalue = [14, 24]\nclass = 1", fillcolor="#399de56a"] ;
224 -> 242 ;
243 [label="log_view <= 14.08\ngini = 0.47\nsamples = 21\nvalue = [14, 23]\nclass = 1", fillcolor="#399de564"] ;
242 -> 243 ;
244 [label="gini = 0.0\nsamples = 1\nvalue = [5, 0]\nclass = 0", fillcolor="#e58139ff"] ;
243 -> 244 ;
245 [label="up_time <= 806.5\ngini = 0.4\nsamples = 20\nvalue = [9, 23]\nclass = 1", fillcolor="#399de59b"] ;
243 -> 245 ;
246 [label="up_time <= 143.0\ngini = 0.19\nsamples = 15\nvalue = [2, 17]\nclass = 1", fillcolor="#399de5e1"] ;
245 -> 246 ;
247 [label="up_time <= 120.0\ngini = 0.5\nsamples = 2\nvalue = [1, 1]\nclass = 0", fillcolor="#e5813900"] ;
246 -> 247 ;
248 [label="gini = 0.0\nsamples = 1\nvalue = [0, 1]\nclass = 1", fillcolor="#399de5ff"] ;
247 -> 248 ;
249 [label="gini = 0.0\nsamples = 1\nvalue = [1, 0]\nclass = 0", fillcolor="#e58139ff"] ;
247 -> 249 ;
250 [label="log_view <= 14.5\ngini = 0.11\nsamples = 13\nvalue = [1, 16]\nclass = 1", fillcolor="#399de5ef"] ;
246 -> 250 ;
251 [label="up_time <= 574.0\ngini = 0.28\nsamples = 4\nvalue = [1, 5]\nclass = 1", fillcolor="#399de5cc"] ;
250 -> 251 ;
252 [label="log_view <= 14.35\ngini = 0.5\nsamples = 2\nvalue = [1, 1]\nclass = 0", fillcolor="#e5813900"] ;
251 -> 252 ;
253 [label="gini = 0.0\nsamples = 1\nvalue = [0, 1]\nclass = 1", fillcolor="#399de5ff"] ;
252 -> 253 ;
254 [label="gini = 0.0\nsamples = 1\nvalue = [1, 0]\nclass = 0", fillcolor="#e58139ff"] ;
252 -> 254 ;
255 [label="gini = 0.0\nsamples = 2\nvalue = [0, 4]\nclass = 1", fillcolor="#399de5ff"] ;
251 -> 255 ;
256 [label="gini = 0.0\nsamples = 9\nvalue = [0, 11]\nclass = 1", fillcolor="#399de5ff"] ;
250 -> 256 ;
257 [label="log_view <= 15.79\ngini = 0.5\nsamples = 5\nvalue = [7, 6]\nclass = 0", fillcolor="#e5813924"] ;
245 -> 257 ;
258 [label="up_time <= 1172.5\ngini = 0.35\nsamples = 4\nvalue = [7, 2]\nclass = 0", fillcolor="#e58139b6"] ;
257 -> 258 ;
259 [label="gini = 0.0\nsamples = 3\nvalue = [7, 0]\nclass = 0", fillcolor="#e58139ff"] ;
258 -> 259 ;
260 [label="gini = 0.0\nsamples = 1\nvalue = [0, 2]\nclass = 1", fillcolor="#399de5ff"] ;
258 -> 260 ;
261 [label="gini = 0.0\nsamples = 1\nvalue = [0, 4]\nclass = 1", fillcolor="#399de5ff"] ;
257 -> 261 ;
262 [label="gini = 0.0\nsamples = 1\nvalue = [0, 1]\nclass = 1", fillcolor="#399de5ff"] ;
242 -> 262 ;
263 [label="gini = 0.0\nsamples = 2\nvalue = [3, 0]\nclass = 0", fillcolor="#e58139ff"] ;
191 -> 263 ;
264 [label="gini = 0.0\nsamples = 2\nvalue = [0, 4]\nclass = 1", fillcolor="#399de5ff"] ;
190 -> 264 ;
265 [label="log_view <= 13.34\ngini = 0.15\nsamples = 232\nvalue = [329, 29]\nclass = 0", fillcolor="#e58139e9"] ;
3 -> 265 ;
266 [label="log_view <= 9.58\ngini = 0.11\nsamples = 224\nvalue = [328, 20]\nclass = 0", fillcolor="#e58139ef"] ;
265 -> 266 ;
267 [label="log_view <= 7.22\ngini = 0.05\nsamples = 172\nvalue = [268, 7]\nclass = 0", fillcolor="#e58139f8"] ;
266 -> 267 ;
268 [label="up_time <= 1486.5\ngini = 0.01\nsamples = 97\nvalue = [158, 1]\nclass = 0", fillcolor="#e58139fd"] ;
267 -> 268 ;
269 [label="gini = 0.0\nsamples = 52\nvalue = [82, 0]\nclass = 0", fillcolor="#e58139ff"] ;
268 -> 269 ;
270 [label="log_view <= 5.16\ngini = 0.03\nsamples = 45\nvalue = [76, 1]\nclass = 0", fillcolor="#e58139fc"] ;
268 -> 270 ;
271 [label="log_view <= 4.97\ngini = 0.06\nsamples = 21\nvalue = [33, 1]\nclass = 0", fillcolor="#e58139f7"] ;
270 -> 271 ;
272 [label="gini = 0.0\nsamples = 20\nvalue = [33, 0]\nclass = 0", fillcolor="#e58139ff"] ;
271 -> 272 ;
273 [label="gini = 0.0\nsamples = 1\nvalue = [0, 1]\nclass = 1", fillcolor="#399de5ff"] ;
271 -> 273 ;
274 [label="gini = 0.0\nsamples = 24\nvalue = [43, 0]\nclass = 0", fillcolor="#e58139ff"] ;
270 -> 274 ;
275 [label="log_view <= 7.25\ngini = 0.1\nsamples = 75\nvalue = [110, 6]\nclass = 0", fillcolor="#e58139f1"] ;
267 -> 275 ;
276 [label="gini = 0.0\nsamples = 1\nvalue = [0, 1]\nclass = 1", fillcolor="#399de5ff"] ;
275 -> 276 ;
277 [label="log_view <= 7.77\ngini = 0.08\nsamples = 74\nvalue = [110, 5]\nclass = 0", fillcolor="#e58139f3"] ;
275 -> 277 ;
278 [label="gini = 0.0\nsamples = 20\nvalue = [29, 0]\nclass = 0", fillcolor="#e58139ff"] ;
277 -> 278 ;
279 [label="up_time <= 1499.5\ngini = 0.11\nsamples = 54\nvalue = [81, 5]\nclass = 0", fillcolor="#e58139ef"] ;
277 -> 279 ;
280 [label="up_time <= 1286.5\ngini = 0.07\nsamples = 35\nvalue = [52, 2]\nclass = 0", fillcolor="#e58139f5"] ;
279 -> 280 ;
281 [label="log_view <= 9.35\ngini = 0.2\nsamples = 6\nvalue = [8, 1]\nclass = 0", fillcolor="#e58139df"] ;
280 -> 281 ;
282 [label="up_time <= 1275.0\ngini = 0.38\nsamples = 4\nvalue = [3, 1]\nclass = 0", fillcolor="#e58139aa"] ;
281 -> 282 ;
283 [label="gini = 0.0\nsamples = 3\nvalue = [3, 0]\nclass = 0", fillcolor="#e58139ff"] ;
282 -> 283 ;
284 [label="gini = 0.0\nsamples = 1\nvalue = [0, 1]\nclass = 1", fillcolor="#399de5ff"] ;
282 -> 284 ;
285 [label="gini = 0.0\nsamples = 2\nvalue = [5, 0]\nclass = 0", fillcolor="#e58139ff"] ;
281 -> 285 ;
286 [label="log_view <= 8.74\ngini = 0.04\nsamples = 29\nvalue = [44, 1]\nclass = 0", fillcolor="#e58139f9"] ;
280 -> 286 ;
287 [label="gini = 0.0\nsamples = 15\nvalue = [26, 0]\nclass = 0", fillcolor="#e58139ff"] ;
286 -> 287 ;
288 [label="log_view <= 8.82\ngini = 0.1\nsamples = 14\nvalue = [18, 1]\nclass = 0", fillcolor="#e58139f1"] ;
286 -> 288 ;
289 [label="gini = 0.0\nsamples = 1\nvalue = [0, 1]\nclass = 1", fillcolor="#399de5ff"] ;
288 -> 289 ;
290 [label="gini = 0.0\nsamples = 13\nvalue = [18, 0]\nclass = 0", fillcolor="#e58139ff"] ;
288 -> 290 ;
291 [label="log_view <= 7.82\ngini = 0.17\nsamples = 19\nvalue = [29, 3]\nclass = 0", fillcolor="#e58139e5"] ;
279 -> 291 ;
292 [label="gini = 0.0\nsamples = 1\nvalue = [0, 1]\nclass = 1", fillcolor="#399de5ff"] ;
291 -> 292 ;
293 [label="up_time <= 1501.0\ngini = 0.12\nsamples = 18\nvalue = [29, 2]\nclass = 0", fillcolor="#e58139ed"] ;
291 -> 293 ;
294 [label="log_view <= 8.39\ngini = 0.28\nsamples = 8\nvalue = [10, 2]\nclass = 0", fillcolor="#e58139cc"] ;
293 -> 294 ;
295 [label="log_view <= 7.86\ngini = 0.48\nsamples = 4\nvalue = [3, 2]\nclass = 0", fillcolor="#e5813955"] ;
294 -> 295 ;
296 [label="gini = 0.0\nsamples = 1\nvalue = [2, 0]\nclass = 0", fillcolor="#e58139ff"] ;
295 -> 296 ;
297 [label="log_view <= 7.96\ngini = 0.44\nsamples = 3\nvalue = [1, 2]\nclass = 1", fillcolor="#399de57f"] ;
295 -> 297 ;
298 [label="gini = 0.0\nsamples = 1\nvalue = [0, 1]\nclass = 1", fillcolor="#399de5ff"] ;
297 -> 298 ;
299 [label="log_view <= 8.09\ngini = 0.5\nsamples = 2\nvalue = [1, 1]\nclass = 0", fillcolor="#e5813900"] ;
297 -> 299 ;
300 [label="gini = 0.0\nsamples = 1\nvalue = [1, 0]\nclass = 0", fillcolor="#e58139ff"] ;
299 -> 300 ;
301 [label="gini = 0.0\nsamples = 1\nvalue = [0, 1]\nclass = 1", fillcolor="#399de5ff"] ;
299 -> 301 ;
302 [label="gini = 0.0\nsamples = 4\nvalue = [7, 0]\nclass = 0", fillcolor="#e58139ff"] ;
294 -> 302 ;
303 [label="gini = 0.0\nsamples = 10\nvalue = [19, 0]\nclass = 0", fillcolor="#e58139ff"] ;
293 -> 303 ;
304 [label="video <= 0.5\ngini = 0.29\nsamples = 52\nvalue = [60, 13]\nclass = 0", fillcolor="#e58139c8"] ;
266 -> 304 ;
305 [label="log_view <= 9.82\ngini = 0.3\nsamples = 51\nvalue = [59, 13]\nclass = 0", fillcolor="#e58139c7"] ;
304 -> 305 ;
306 [label="up_time <= 1423.0\ngini = 0.38\nsamples = 5\nvalue = [2, 6]\nclass = 1", fillcolor="#399de5aa"] ;
305 -> 306 ;
307 [label="gini = 0.0\nsamples = 1\nvalue = [1, 0]\nclass = 0", fillcolor="#e58139ff"] ;
306 -> 307 ;
308 [label="log_view <= 9.68\ngini = 0.24\nsamples = 4\nvalue = [1, 6]\nclass = 1", fillcolor="#399de5d4"] ;
306 -> 308 ;
309 [label="gini = 0.0\nsamples = 2\nvalue = [0, 5]\nclass = 1", fillcolor="#399de5ff"] ;
308 -> 309 ;
310 [label="log_view <= 9.72\ngini = 0.5\nsamples = 2\nvalue = [1, 1]\nclass = 0", fillcolor="#e5813900"] ;
308 -> 310 ;
311 [label="gini = 0.0\nsamples = 1\nvalue = [1, 0]\nclass = 0", fillcolor="#e58139ff"] ;
310 -> 311 ;
312 [label="gini = 0.0\nsamples = 1\nvalue = [0, 1]\nclass = 1", fillcolor="#399de5ff"] ;
310 -> 312 ;
313 [label="up_time <= 1561.5\ngini = 0.19\nsamples = 46\nvalue = [57, 7]\nclass = 0", fillcolor="#e58139e0"] ;
305 -> 313 ;
314 [label="music <= 0.5\ngini = 0.16\nsamples = 40\nvalue = [53, 5]\nclass = 0", fillcolor="#e58139e7"] ;
313 -> 314 ;
315 [label="log_view <= 11.48\ngini = 0.16\nsamples = 39\nvalue = [51, 5]\nclass = 0", fillcolor="#e58139e6"] ;
314 -> 315 ;
316 [label="audio <= 0.5\ngini = 0.09\nsamples = 26\nvalue = [40, 2]\nclass = 0", fillcolor="#e58139f2"] ;
315 -> 316 ;
317 [label="up_time <= 1483.0\ngini = 0.09\nsamples = 24\nvalue = [38, 2]\nclass = 0", fillcolor="#e58139f2"] ;
316 -> 317 ;
318 [label="log_view <= 10.64\ngini = 0.2\nsamples = 9\nvalue = [16, 2]\nclass = 0", fillcolor="#e58139df"] ;
317 -> 318 ;
319 [label="log_view <= 10.45\ngini = 0.38\nsamples = 4\nvalue = [6, 2]\nclass = 0", fillcolor="#e58139aa"] ;
318 -> 319 ;
320 [label="gini = 0.0\nsamples = 3\nvalue = [6, 0]\nclass = 0", fillcolor="#e58139ff"] ;
319 -> 320 ;
321 [label="gini = 0.0\nsamples = 1\nvalue = [0, 2]\nclass = 1", fillcolor="#399de5ff"] ;
319 -> 321 ;
322 [label="gini = 0.0\nsamples = 5\nvalue = [10, 0]\nclass = 0", fillcolor="#e58139ff"] ;
318 -> 322 ;
323 [label="gini = 0.0\nsamples = 15\nvalue = [22, 0]\nclass = 0", fillcolor="#e58139ff"] ;
317 -> 323 ;
324 [label="gini = 0.0\nsamples = 2\nvalue = [2, 0]\nclass = 0", fillcolor="#e58139ff"] ;
316 -> 324 ;
325 [label="log_view <= 11.9\ngini = 0.34\nsamples = 13\nvalue = [11, 3]\nclass = 0", fillcolor="#e58139b9"] ;
315 -> 325 ;
326 [label="log_view <= 11.54\ngini = 0.44\nsamples = 3\nvalue = [1, 2]\nclass = 1", fillcolor="#399de57f"] ;
325 -> 326 ;
327 [label="gini = 0.0\nsamples = 1\nvalue = [0, 1]\nclass = 1", fillcolor="#399de5ff"] ;
326 -> 327 ;
328 [label="up_time <= 1340.5\ngini = 0.5\nsamples = 2\nvalue = [1, 1]\nclass = 0", fillcolor="#e5813900"] ;
326 -> 328 ;
329 [label="gini = 0.0\nsamples = 1\nvalue = [1, 0]\nclass = 0", fillcolor="#e58139ff"] ;
328 -> 329 ;
330 [label="gini = 0.0\nsamples = 1\nvalue = [0, 1]\nclass = 1", fillcolor="#399de5ff"] ;
328 -> 330 ;
331 [label="up_time <= 1335.0\ngini = 0.17\nsamples = 10\nvalue = [10, 1]\nclass = 0", fillcolor="#e58139e6"] ;
325 -> 331 ;
332 [label="gini = 0.0\nsamples = 1\nvalue = [0, 1]\nclass = 1", fillcolor="#399de5ff"] ;
331 -> 332 ;
333 [label="gini = 0.0\nsamples = 9\nvalue = [10, 0]\nclass = 0", fillcolor="#e58139ff"] ;
331 -> 333 ;
334 [label="gini = 0.0\nsamples = 1\nvalue = [2, 0]\nclass = 0", fillcolor="#e58139ff"] ;
314 -> 334 ;
335 [label="log_view <= 10.75\ngini = 0.44\nsamples = 6\nvalue = [4, 2]\nclass = 0", fillcolor="#e581397f"] ;
313 -> 335 ;
336 [label="gini = 0.0\nsamples = 3\nvalue = [3, 0]\nclass = 0", fillcolor="#e58139ff"] ;
335 -> 336 ;
337 [label="log_view <= 12.59\ngini = 0.44\nsamples = 3\nvalue = [1, 2]\nclass = 1", fillcolor="#399de57f"] ;
335 -> 337 ;
338 [label="gini = 0.0\nsamples = 2\nvalue = [0, 2]\nclass = 1", fillcolor="#399de5ff"] ;
337 -> 338 ;
339 [label="gini = 0.0\nsamples = 1\nvalue = [1, 0]\nclass = 0", fillcolor="#e58139ff"] ;
337 -> 339 ;
340 [label="gini = 0.0\nsamples = 1\nvalue = [1, 0]\nclass = 0", fillcolor="#e58139ff"] ;
304 -> 340 ;
341 [label="up_time <= 1522.0\ngini = 0.18\nsamples = 8\nvalue = [1, 9]\nclass = 1", fillcolor="#399de5e3"] ;
265 -> 341 ;
342 [label="gini = 0.0\nsamples = 5\nvalue = [0, 7]\nclass = 1", fillcolor="#399de5ff"] ;
341 -> 342 ;
343 [label="up_time <= 1549.0\ngini = 0.44\nsamples = 3\nvalue = [1, 2]\nclass = 1", fillcolor="#399de57f"] ;
341 -> 343 ;
344 [label="gini = 0.0\nsamples = 1\nvalue = [1, 0]\nclass = 0", fillcolor="#e58139ff"] ;
343 -> 344 ;
345 [label="gini = 0.0\nsamples = 2\nvalue = [0, 2]\nclass = 1", fillcolor="#399de5ff"] ;
343 -> 345 ;
346 [label="log_view <= 13.91\ngini = 0.5\nsamples = 205\nvalue = [147, 176]\nclass = 1", fillcolor="#399de52a"] ;
2 -> 346 ;
347 [label="log_view <= 9.33\ngini = 0.47\nsamples = 134\nvalue = [133, 78]\nclass = 0", fillcolor="#e5813969"] ;
346 -> 347 ;
348 [label="video <= 0.5\ngini = 0.28\nsamples = 28\nvalue = [34, 7]\nclass = 0", fillcolor="#e58139ca"] ;
347 -> 348 ;
349 [label="up_time <= 1840.0\ngini = 0.26\nsamples = 27\nvalue = [34, 6]\nclass = 0", fillcolor="#e58139d2"] ;
348 -> 349 ;
350 [label="gini = 0.0\nsamples = 11\nvalue = [16, 0]\nclass = 0", fillcolor="#e58139ff"] ;
349 -> 350 ;
351 [label="up_time <= 1881.0\ngini = 0.38\nsamples = 16\nvalue = [18, 6]\nclass = 0", fillcolor="#e58139aa"] ;
349 -> 351 ;
352 [label="gini = 0.0\nsamples = 1\nvalue = [0, 3]\nclass = 1", fillcolor="#399de5ff"] ;
351 -> 352 ;
353 [label="up_time <= 2572.5\ngini = 0.24\nsamples = 15\nvalue = [18, 3]\nclass = 0", fillcolor="#e58139d4"] ;
351 -> 353 ;
354 [label="up_time <= 2307.5\ngini = 0.42\nsamples = 7\nvalue = [7, 3]\nclass = 0", fillcolor="#e5813992"] ;
353 -> 354 ;
355 [label="gini = 0.0\nsamples = 3\nvalue = [5, 0]\nclass = 0", fillcolor="#e58139ff"] ;
354 -> 355 ;
356 [label="log_view <= 7.34\ngini = 0.48\nsamples = 4\nvalue = [2, 3]\nclass = 1", fillcolor="#399de555"] ;
354 -> 356 ;
357 [label="gini = 0.0\nsamples = 1\nvalue = [1, 0]\nclass = 0", fillcolor="#e58139ff"] ;
356 -> 357 ;
358 [label="up_time <= 2483.5\ngini = 0.38\nsamples = 3\nvalue = [1, 3]\nclass = 1", fillcolor="#399de5aa"] ;
356 -> 358 ;
359 [label="gini = 0.0\nsamples = 1\nvalue = [0, 1]\nclass = 1", fillcolor="#399de5ff"] ;
358 -> 359 ;
360 [label="log_view <= 8.1\ngini = 0.44\nsamples = 2\nvalue = [1, 2]\nclass = 1", fillcolor="#399de57f"] ;
358 -> 360 ;
361 [label="gini = 0.0\nsamples = 1\nvalue = [0, 2]\nclass = 1", fillcolor="#399de5ff"] ;
360 -> 361 ;
362 [label="gini = 0.0\nsamples = 1\nvalue = [1, 0]\nclass = 0", fillcolor="#e58139ff"] ;
360 -> 362 ;
363 [label="gini = 0.0\nsamples = 8\nvalue = [11, 0]\nclass = 0", fillcolor="#e58139ff"] ;
353 -> 363 ;
364 [label="gini = 0.0\nsamples = 1\nvalue = [0, 1]\nclass = 1", fillcolor="#399de5ff"] ;
348 -> 364 ;
365 [label="music <= 0.5\ngini = 0.49\nsamples = 106\nvalue = [99, 71]\nclass = 0", fillcolor="#e5813948"] ;
347 -> 365 ;
366 [label="video <= 0.5\ngini = 0.48\nsamples = 104\nvalue = [99, 69]\nclass = 0", fillcolor="#e581394d"] ;
365 -> 366 ;
367 [label="audio <= 0.5\ngini = 0.47\nsamples = 99\nvalue = [99, 61]\nclass = 0", fillcolor="#e5813962"] ;
366 -> 367 ;
368 [label="up_time <= 1835.0\ngini = 0.48\nsamples = 96\nvalue = [95, 61]\nclass = 0", fillcolor="#e581395b"] ;
367 -> 368 ;
369 [label="log_view <= 10.42\ngini = 0.39\nsamples = 11\nvalue = [6, 17]\nclass = 1", fillcolor="#399de5a5"] ;
368 -> 369 ;
370 [label="log_view <= 9.61\ngini = 0.48\nsamples = 3\nvalue = [3, 2]\nclass = 0", fillcolor="#e5813955"] ;
369 -> 370 ;
371 [label="gini = 0.0\nsamples = 1\nvalue = [0, 2]\nclass = 1", fillcolor="#399de5ff"] ;
370 -> 371 ;
372 [label="gini = 0.0\nsamples = 2\nvalue = [3, 0]\nclass = 0", fillcolor="#e58139ff"] ;
370 -> 372 ;
373 [label="log_view <= 11.71\ngini = 0.28\nsamples = 8\nvalue = [3, 15]\nclass = 1", fillcolor="#399de5cc"] ;
369 -> 373 ;
374 [label="log_view <= 11.58\ngini = 0.38\nsamples = 5\nvalue = [3, 9]\nclass = 1", fillcolor="#399de5aa"] ;
373 -> 374 ;
375 [label="log_view <= 10.73\ngini = 0.18\nsamples = 4\nvalue = [1, 9]\nclass = 1", fillcolor="#399de5e3"] ;
374 -> 375 ;
376 [label="gini = 0.0\nsamples = 2\nvalue = [0, 5]\nclass = 1", fillcolor="#399de5ff"] ;
375 -> 376 ;
377 [label="up_time <= 1791.0\ngini = 0.32\nsamples = 2\nvalue = [1, 4]\nclass = 1", fillcolor="#399de5bf"] ;
375 -> 377 ;
378 [label="gini = 0.0\nsamples = 1\nvalue = [1, 0]\nclass = 0", fillcolor="#e58139ff"] ;
377 -> 378 ;
379 [label="gini = 0.0\nsamples = 1\nvalue = [0, 4]\nclass = 1", fillcolor="#399de5ff"] ;
377 -> 379 ;
380 [label="gini = 0.0\nsamples = 1\nvalue = [2, 0]\nclass = 0", fillcolor="#e58139ff"] ;
374 -> 380 ;
381 [label="gini = 0.0\nsamples = 3\nvalue = [0, 6]\nclass = 1", fillcolor="#399de5ff"] ;
373 -> 381 ;
382 [label="log_view <= 9.36\ngini = 0.44\nsamples = 85\nvalue = [89, 44]\nclass = 0", fillcolor="#e5813981"] ;
368 -> 382 ;
383 [label="gini = 0.0\nsamples = 2\nvalue = [0, 4]\nclass = 1", fillcolor="#399de5ff"] ;
382 -> 383 ;
384 [label="up_time <= 3345.0\ngini = 0.43\nsamples = 83\nvalue = [89, 40]\nclass = 0", fillcolor="#e581398c"] ;
382 -> 384 ;
385 [label="up_time <= 3026.0\ngini = 0.4\nsamples = 61\nvalue = [69, 26]\nclass = 0", fillcolor="#e581399f"] ;
384 -> 385 ;
386 [label="log_view <= 13.02\ngini = 0.42\nsamples = 53\nvalue = [57, 25]\nclass = 0", fillcolor="#e581398f"] ;
385 -> 386 ;
387 [label="log_view <= 11.93\ngini = 0.36\nsamples = 44\nvalue = [51, 16]\nclass = 0", fillcolor="#e58139af"] ;
386 -> 387 ;
388 [label="log_view <= 10.02\ngini = 0.42\nsamples = 33\nvalue = [34, 15]\nclass = 0", fillcolor="#e581398e"] ;
387 -> 388 ;
389 [label="gini = 0.0\nsamples = 6\nvalue = [11, 0]\nclass = 0", fillcolor="#e58139ff"] ;
388 -> 389 ;
390 [label="up_time <= 2879.5\ngini = 0.48\nsamples = 27\nvalue = [23, 15]\nclass = 0", fillcolor="#e5813959"] ;
388 -> 390 ;
391 [label="up_time <= 1859.0\ngini = 0.46\nsamples = 25\nvalue = [23, 13]\nclass = 0", fillcolor="#e581396f"] ;
390 -> 391 ;
392 [label="gini = 0.0\nsamples = 1\nvalue = [4, 0]\nclass = 0", fillcolor="#e58139ff"] ;
391 -> 392 ;
393 [label="up_time <= 1880.0\ngini = 0.48\nsamples = 24\nvalue = [19, 13]\nclass = 0", fillcolor="#e5813951"] ;
391 -> 393 ;
394 [label="gini = 0.0\nsamples = 1\nvalue = [0, 2]\nclass = 1", fillcolor="#399de5ff"] ;
393 -> 394 ;
395 [label="log_view <= 11.75\ngini = 0.46\nsamples = 23\nvalue = [19, 11]\nclass = 0", fillcolor="#e581396b"] ;
393 -> 395 ;
396 [label="log_view <= 10.83\ngini = 0.44\nsamples = 22\nvalue = [19, 9]\nclass = 0", fillcolor="#e5813986"] ;
395 -> 396 ;
397 [label="log_view <= 10.15\ngini = 0.5\nsamples = 8\nvalue = [5, 6]\nclass = 1", fillcolor="#399de52a"] ;
396 -> 397 ;
398 [label="gini = 0.0\nsamples = 2\nvalue = [2, 0]\nclass = 0", fillcolor="#e58139ff"] ;
397 -> 398 ;
399 [label="log_view <= 10.76\ngini = 0.44\nsamples = 6\nvalue = [3, 6]\nclass = 1", fillcolor="#399de57f"] ;
397 -> 399 ;
400 [label="log_view <= 10.51\ngini = 0.49\nsamples = 5\nvalue = [3, 4]\nclass = 1", fillcolor="#399de540"] ;
399 -> 400 ;
401 [label="log_view <= 10.24\ngini = 0.32\nsamples = 4\nvalue = [1, 4]\nclass = 1", fillcolor="#399de5bf"] ;
400 -> 401 ;
402 [label="log_view <= 10.18\ngini = 0.5\nsamples = 2\nvalue = [1, 1]\nclass = 0", fillcolor="#e5813900"] ;
401 -> 402 ;
403 [label="gini = 0.0\nsamples = 1\nvalue = [0, 1]\nclass = 1", fillcolor="#399de5ff"] ;
402 -> 403 ;
404 [label="gini = 0.0\nsamples = 1\nvalue = [1, 0]\nclass = 0", fillcolor="#e58139ff"] ;
402 -> 404 ;
405 [label="gini = 0.0\nsamples = 2\nvalue = [0, 3]\nclass = 1", fillcolor="#399de5ff"] ;
401 -> 405 ;
406 [label="gini = 0.0\nsamples = 1\nvalue = [2, 0]\nclass = 0", fillcolor="#e58139ff"] ;
400 -> 406 ;
407 [label="gini = 0.0\nsamples = 1\nvalue = [0, 2]\nclass = 1", fillcolor="#399de5ff"] ;
399 -> 407 ;
408 [label="log_view <= 11.29\ngini = 0.29\nsamples = 14\nvalue = [14, 3]\nclass = 0", fillcolor="#e58139c8"] ;
396 -> 408 ;
409 [label="gini = 0.0\nsamples = 5\nvalue = [5, 0]\nclass = 0", fillcolor="#e58139ff"] ;
408 -> 409 ;
410 [label="log_view <= 11.44\ngini = 0.38\nsamples = 9\nvalue = [9, 3]\nclass = 0", fillcolor="#e58139aa"] ;
408 -> 410 ;
411 [label="up_time <= 2566.0\ngini = 0.44\nsamples = 3\nvalue = [1, 2]\nclass = 1", fillcolor="#399de57f"] ;
410 -> 411 ;
412 [label="gini = 0.0\nsamples = 1\nvalue = [1, 0]\nclass = 0", fillcolor="#e58139ff"] ;
411 -> 412 ;
413 [label="gini = 0.0\nsamples = 2\nvalue = [0, 2]\nclass = 1", fillcolor="#399de5ff"] ;
411 -> 413 ;
414 [label="log_view <= 11.59\ngini = 0.2\nsamples = 6\nvalue = [8, 1]\nclass = 0", fillcolor="#e58139df"] ;
410 -> 414 ;
415 [label="up_time <= 2695.5\ngini = 0.38\nsamples = 3\nvalue = [3, 1]\nclass = 0", fillcolor="#e58139aa"] ;
414 -> 415 ;
416 [label="gini = 0.0\nsamples = 1\nvalue = [2, 0]\nclass = 0", fillcolor="#e58139ff"] ;
415 -> 416 ;
417 [label="log_view <= 11.53\ngini = 0.5\nsamples = 2\nvalue = [1, 1]\nclass = 0", fillcolor="#e5813900"] ;
415 -> 417 ;
418 [label="gini = 0.0\nsamples = 1\nvalue = [1, 0]\nclass = 0", fillcolor="#e58139ff"] ;
417 -> 418 ;
419 [label="gini = 0.0\nsamples = 1\nvalue = [0, 1]\nclass = 1", fillcolor="#399de5ff"] ;
417 -> 419 ;
420 [label="gini = 0.0\nsamples = 3\nvalue = [5, 0]\nclass = 0", fillcolor="#e58139ff"] ;
414 -> 420 ;
421 [label="gini = 0.0\nsamples = 1\nvalue = [0, 2]\nclass = 1", fillcolor="#399de5ff"] ;
395 -> 421 ;
422 [label="gini = 0.0\nsamples = 2\nvalue = [0, 2]\nclass = 1", fillcolor="#399de5ff"] ;
390 -> 422 ;
423 [label="up_time <= 2008.5\ngini = 0.1\nsamples = 11\nvalue = [17, 1]\nclass = 0", fillcolor="#e58139f0"] ;
387 -> 423 ;
424 [label="gini = 0.0\nsamples = 1\nvalue = [0, 1]\nclass = 1", fillcolor="#399de5ff"] ;
423 -> 424 ;
425 [label="gini = 0.0\nsamples = 10\nvalue = [17, 0]\nclass = 0", fillcolor="#e58139ff"] ;
423 -> 425 ;
426 [label="log_view <= 13.4\ngini = 0.48\nsamples = 9\nvalue = [6, 9]\nclass = 1", fillcolor="#399de555"] ;
386 -> 426 ;
427 [label="up_time <= 2757.5\ngini = 0.32\nsamples = 5\nvalue = [2, 8]\nclass = 1", fillcolor="#399de5bf"] ;
426 -> 427 ;
428 [label="gini = 0.0\nsamples = 3\nvalue = [0, 5]\nclass = 1", fillcolor="#399de5ff"] ;
427 -> 428 ;
429 [label="up_time <= 2896.5\ngini = 0.48\nsamples = 2\nvalue = [2, 3]\nclass = 1", fillcolor="#399de555"] ;
427 -> 429 ;
430 [label="gini = 0.0\nsamples = 1\nvalue = [2, 0]\nclass = 0", fillcolor="#e58139ff"] ;
429 -> 430 ;
431 [label="gini = 0.0\nsamples = 1\nvalue = [0, 3]\nclass = 1", fillcolor="#399de5ff"] ;
429 -> 431 ;
432 [label="log_view <= 13.62\ngini = 0.32\nsamples = 4\nvalue = [4, 1]\nclass = 0", fillcolor="#e58139bf"] ;
426 -> 432 ;
433 [label="gini = 0.0\nsamples = 2\nvalue = [3, 0]\nclass = 0", fillcolor="#e58139ff"] ;
432 -> 433 ;
434 [label="log_view <= 13.76\ngini = 0.5\nsamples = 2\nvalue = [1, 1]\nclass = 0", fillcolor="#e5813900"] ;
432 -> 434 ;
435 [label="gini = 0.0\nsamples = 1\nvalue = [0, 1]\nclass = 1", fillcolor="#399de5ff"] ;
434 -> 435 ;
436 [label="gini = 0.0\nsamples = 1\nvalue = [1, 0]\nclass = 0", fillcolor="#e58139ff"] ;
434 -> 436 ;
437 [label="log_view <= 13.28\ngini = 0.14\nsamples = 8\nvalue = [12, 1]\nclass = 0", fillcolor="#e58139ea"] ;
385 -> 437 ;
438 [label="gini = 0.0\nsamples = 7\nvalue = [12, 0]\nclass = 0", fillcolor="#e58139ff"] ;
437 -> 438 ;
439 [label="gini = 0.0\nsamples = 1\nvalue = [0, 1]\nclass = 1", fillcolor="#399de5ff"] ;
437 -> 439 ;
440 [label="up_time <= 3391.5\ngini = 0.48\nsamples = 22\nvalue = [20, 14]\nclass = 0", fillcolor="#e581394d"] ;
384 -> 440 ;
441 [label="gini = 0.0\nsamples = 3\nvalue = [0, 3]\nclass = 1", fillcolor="#399de5ff"] ;
440 -> 441 ;
442 [label="up_time <= 3431.0\ngini = 0.46\nsamples = 19\nvalue = [20, 11]\nclass = 0", fillcolor="#e5813973"] ;
440 -> 442 ;
443 [label="gini = 0.0\nsamples = 3\nvalue = [5, 0]\nclass = 0", fillcolor="#e58139ff"] ;
442 -> 443 ;
444 [label="log_view <= 12.05\ngini = 0.49\nsamples = 16\nvalue = [15, 11]\nclass = 0", fillcolor="#e5813944"] ;
442 -> 444 ;
445 [label="log_view <= 11.88\ngini = 0.38\nsamples = 5\nvalue = [2, 6]\nclass = 1", fillcolor="#399de5aa"] ;
444 -> 445 ;
446 [label="up_time <= 4182.0\ngini = 0.5\nsamples = 3\nvalue = [2, 2]\nclass = 0", fillcolor="#e5813900"] ;
445 -> 446 ;
447 [label="gini = 0.0\nsamples = 2\nvalue = [2, 0]\nclass = 0", fillcolor="#e58139ff"] ;
446 -> 447 ;
448 [label="gini = 0.0\nsamples = 1\nvalue = [0, 2]\nclass = 1", fillcolor="#399de5ff"] ;
446 -> 448 ;
449 [label="gini = 0.0\nsamples = 2\nvalue = [0, 4]\nclass = 1", fillcolor="#399de5ff"] ;
445 -> 449 ;
450 [label="log_view <= 13.11\ngini = 0.4\nsamples = 11\nvalue = [13, 5]\nclass = 0", fillcolor="#e581399d"] ;
444 -> 450 ;
451 [label="log_view <= 12.67\ngini = 0.3\nsamples = 9\nvalue = [13, 3]\nclass = 0", fillcolor="#e58139c4"] ;
450 -> 451 ;
452 [label="up_time <= 4244.0\ngini = 0.44\nsamples = 6\nvalue = [6, 3]\nclass = 0", fillcolor="#e581397f"] ;
451 -> 452 ;
453 [label="up_time <= 4013.0\ngini = 0.38\nsamples = 4\nvalue = [1, 3]\nclass = 1", fillcolor="#399de5aa"] ;
452 -> 453 ;
454 [label="gini = 0.0\nsamples = 2\nvalue = [0, 2]\nclass = 1", fillcolor="#399de5ff"] ;
453 -> 454 ;
455 [label="log_view <= 12.41\ngini = 0.5\nsamples = 2\nvalue = [1, 1]\nclass = 0", fillcolor="#e5813900"] ;
453 -> 455 ;
456 [label="gini = 0.0\nsamples = 1\nvalue = [0, 1]\nclass = 1", fillcolor="#399de5ff"] ;
455 -> 456 ;
457 [label="gini = 0.0\nsamples = 1\nvalue = [1, 0]\nclass = 0", fillcolor="#e58139ff"] ;
455 -> 457 ;
458 [label="gini = 0.0\nsamples = 2\nvalue = [5, 0]\nclass = 0", fillcolor="#e58139ff"] ;
452 -> 458 ;
459 [label="gini = 0.0\nsamples = 3\nvalue = [7, 0]\nclass = 0", fillcolor="#e58139ff"] ;
451 -> 459 ;
460 [label="gini = 0.0\nsamples = 2\nvalue = [0, 2]\nclass = 1", fillcolor="#399de5ff"] ;
450 -> 460 ;
461 [label="gini = 0.0\nsamples = 3\nvalue = [4, 0]\nclass = 0", fillcolor="#e58139ff"] ;
367 -> 461 ;
462 [label="gini = 0.0\nsamples = 5\nvalue = [0, 8]\nclass = 1", fillcolor="#399de5ff"] ;
366 -> 462 ;
463 [label="gini = 0.0\nsamples = 2\nvalue = [0, 2]\nclass = 1", fillcolor="#399de5ff"] ;
365 -> 463 ;
464 [label="log_view <= 16.39\ngini = 0.22\nsamples = 71\nvalue = [14, 98]\nclass = 1", fillcolor="#399de5db"] ;
346 -> 464 ;
465 [label="log_view <= 16.37\ngini = 0.27\nsamples = 56\nvalue = [14, 75]\nclass = 1", fillcolor="#399de5cf"] ;
464 -> 465 ;
466 [label="up_time <= 3848.5\ngini = 0.21\nsamples = 55\nvalue = [10, 75]\nclass = 1", fillcolor="#399de5dd"] ;
465 -> 466 ;
467 [label="video <= 0.5\ngini = 0.16\nsamples = 50\nvalue = [7, 72]\nclass = 1", fillcolor="#399de5e6"] ;
466 -> 467 ;
468 [label="log_view <= 14.66\ngini = 0.18\nsamples = 44\nvalue = [7, 62]\nclass = 1", fillcolor="#399de5e2"] ;
467 -> 468 ;
469 [label="up_time <= 1732.0\ngini = 0.31\nsamples = 20\nvalue = [6, 25]\nclass = 1", fillcolor="#399de5c2"] ;
468 -> 469 ;
470 [label="gini = 0.0\nsamples = 1\nvalue = [1, 0]\nclass = 0", fillcolor="#e58139ff"] ;
469 -> 470 ;
471 [label="log_view <= 14.46\ngini = 0.28\nsamples = 19\nvalue = [5, 25]\nclass = 1", fillcolor="#399de5cc"] ;
469 -> 471 ;
472 [label="log_view <= 14.17\ngini = 0.14\nsamples = 15\nvalue = [2, 24]\nclass = 1", fillcolor="#399de5ea"] ;
471 -> 472 ;
473 [label="gini = 0.0\nsamples = 10\nvalue = [0, 18]\nclass = 1", fillcolor="#399de5ff"] ;
472 -> 473 ;
474 [label="log_view <= 14.22\ngini = 0.38\nsamples = 5\nvalue = [2, 6]\nclass = 1", fillcolor="#399de5aa"] ;
472 -> 474 ;
475 [label="gini = 0.0\nsamples = 1\nvalue = [2, 0]\nclass = 0", fillcolor="#e58139ff"] ;
474 -> 475 ;
476 [label="gini = 0.0\nsamples = 4\nvalue = [0, 6]\nclass = 1", fillcolor="#399de5ff"] ;
474 -> 476 ;
477 [label="up_time <= 2765.0\ngini = 0.38\nsamples = 4\nvalue = [3, 1]\nclass = 0", fillcolor="#e58139aa"] ;
471 -> 477 ;
478 [label="log_view <= 14.57\ngini = 0.5\nsamples = 2\nvalue = [1, 1]\nclass = 0", fillcolor="#e5813900"] ;
477 -> 478 ;
479 [label="gini = 0.0\nsamples = 1\nvalue = [0, 1]\nclass = 1", fillcolor="#399de5ff"] ;
478 -> 479 ;
480 [label="gini = 0.0\nsamples = 1\nvalue = [1, 0]\nclass = 0", fillcolor="#e58139ff"] ;
478 -> 480 ;
481 [label="gini = 0.0\nsamples = 2\nvalue = [2, 0]\nclass = 0", fillcolor="#e58139ff"] ;
477 -> 481 ;
482 [label="up_time <= 3360.0\ngini = 0.05\nsamples = 24\nvalue = [1, 37]\nclass = 1", fillcolor="#399de5f8"] ;
468 -> 482 ;
483 [label="gini = 0.0\nsamples = 18\nvalue = [0, 28]\nclass = 1", fillcolor="#399de5ff"] ;
482 -> 483 ;
484 [label="up_time <= 3361.5\ngini = 0.18\nsamples = 6\nvalue = [1, 9]\nclass = 1", fillcolor="#399de5e3"] ;
482 -> 484 ;
485 [label="gini = 0.0\nsamples = 1\nvalue = [1, 0]\nclass = 0", fillcolor="#e58139ff"] ;
484 -> 485 ;
486 [label="gini = 0.0\nsamples = 5\nvalue = [0, 9]\nclass = 1", fillcolor="#399de5ff"] ;
484 -> 486 ;
487 [label="gini = 0.0\nsamples = 6\nvalue = [0, 10]\nclass = 1", fillcolor="#399de5ff"] ;
467 -> 487 ;
488 [label="log_view <= 14.84\ngini = 0.5\nsamples = 5\nvalue = [3, 3]\nclass = 0", fillcolor="#e5813900"] ;
466 -> 488 ;
489 [label="gini = 0.0\nsamples = 2\nvalue = [0, 2]\nclass = 1", fillcolor="#399de5ff"] ;
488 -> 489 ;
490 [label="up_time <= 4152.0\ngini = 0.38\nsamples = 3\nvalue = [3, 1]\nclass = 0", fillcolor="#e58139aa"] ;
488 -> 490 ;
491 [label="gini = 0.0\nsamples = 2\nvalue = [3, 0]\nclass = 0", fillcolor="#e58139ff"] ;
490 -> 491 ;
492 [label="gini = 0.0\nsamples = 1\nvalue = [0, 1]\nclass = 1", fillcolor="#399de5ff"] ;
490 -> 492 ;
493 [label="gini = 0.0\nsamples = 1\nvalue = [4, 0]\nclass = 0", fillcolor="#e58139ff"] ;
465 -> 493 ;
494 [label="gini = 0.0\nsamples = 15\nvalue = [0, 23]\nclass = 1", fillcolor="#399de5ff"] ;
464 -> 494 ;
495 [label="log_view <= 9.08\ngini = 0.19\nsamples = 137\nvalue = [24, 206]\nclass = 1", fillcolor="#399de5e1"] ;
1 -> 495 ;
496 [label="audio <= 0.5\ngini = 0.49\nsamples = 14\nvalue = [10, 14]\nclass = 1", fillcolor="#399de549"] ;
495 -> 496 ;
497 [label="up_time <= 2152.0\ngini = 0.22\nsamples = 10\nvalue = [2, 14]\nclass = 1", fillcolor="#399de5db"] ;
496 -> 497 ;
498 [label="gini = 0.0\nsamples = 9\nvalue = [0, 14]\nclass = 1", fillcolor="#399de5ff"] ;
497 -> 498 ;
499 [label="gini = 0.0\nsamples = 1\nvalue = [2, 0]\nclass = 0", fillcolor="#e58139ff"] ;
497 -> 499 ;
500 [label="gini = 0.0\nsamples = 4\nvalue = [8, 0]\nclass = 0", fillcolor="#e58139ff"] ;
496 -> 500 ;
501 [label="video <= 0.5\ngini = 0.13\nsamples = 123\nvalue = [14, 192]\nclass = 1", fillcolor="#399de5ec"] ;
495 -> 501 ;
502 [label="up_time <= 1791.5\ngini = 0.28\nsamples = 11\nvalue = [10, 2]\nclass = 0", fillcolor="#e58139cc"] ;
501 -> 502 ;
503 [label="gini = 0.0\nsamples = 9\nvalue = [10, 0]\nclass = 0", fillcolor="#e58139ff"] ;
502 -> 503 ;
504 [label="gini = 0.0\nsamples = 2\nvalue = [0, 2]\nclass = 1", fillcolor="#399de5ff"] ;
502 -> 504 ;
505 [label="up_time <= 551.5\ngini = 0.04\nsamples = 112\nvalue = [4, 190]\nclass = 1", fillcolor="#399de5fa"] ;
501 -> 505 ;
506 [label="gini = 0.0\nsamples = 42\nvalue = [0, 73]\nclass = 1", fillcolor="#399de5ff"] ;
505 -> 506 ;
507 [label="official video <= 0.5\ngini = 0.06\nsamples = 70\nvalue = [4, 117]\nclass = 1", fillcolor="#399de5f6"] ;
505 -> 507 ;
508 [label="gini = 0.0\nsamples = 18\nvalue = [0, 32]\nclass = 1", fillcolor="#399de5ff"] ;
507 -> 508 ;
509 [label="up_time <= 566.0\ngini = 0.09\nsamples = 52\nvalue = [4, 85]\nclass = 1", fillcolor="#399de5f3"] ;
507 -> 509 ;
510 [label="gini = 0.0\nsamples = 1\nvalue = [2, 0]\nclass = 0", fillcolor="#e58139ff"] ;
509 -> 510 ;
511 [label="up_time <= 1290.0\ngini = 0.04\nsamples = 51\nvalue = [2, 85]\nclass = 1", fillcolor="#399de5f9"] ;
509 -> 511 ;
512 [label="gini = 0.0\nsamples = 26\nvalue = [0, 45]\nclass = 1", fillcolor="#399de5ff"] ;
511 -> 512 ;
513 [label="up_time <= 1303.0\ngini = 0.09\nsamples = 25\nvalue = [2, 40]\nclass = 1", fillcolor="#399de5f2"] ;
511 -> 513 ;
514 [label="gini = 0.0\nsamples = 1\nvalue = [2, 0]\nclass = 0", fillcolor="#e58139ff"] ;
513 -> 514 ;
515 [label="gini = 0.0\nsamples = 24\nvalue = [0, 40]\nclass = 1", fillcolor="#399de5ff"] ;
513 -> 515 ;
516 [label="official <= 0.5\ngini = 0.33\nsamples = 773\nvalue = [251, 955]\nclass = 1", fillcolor="#399de5bc"] ;
0 -> 516 [labeldistance=2.5, labelangle=-45, headlabel="False"] ;
517 [label="music video <= 0.5\ngini = 0.41\nsamples = 471\nvalue = [214, 532]\nclass = 1", fillcolor="#399de598"] ;
516 -> 517 ;
518 [label="video <= 0.5\ngini = 0.41\nsamples = 469\nvalue = [214, 529]\nclass = 1", fillcolor="#399de598"] ;
517 -> 518 ;
519 [label="log_view <= 14.47\ngini = 0.44\nsamples = 419\nvalue = [213, 448]\nclass = 1", fillcolor="#399de586"] ;
518 -> 519 ;
520 [label="audio <= 0.5\ngini = 0.46\nsamples = 172\nvalue = [179, 98]\nclass = 0", fillcolor="#e5813973"] ;
519 -> 520 ;
521 [label="log_view <= 13.38\ngini = 0.48\nsamples = 152\nvalue = [151, 98]\nclass = 0", fillcolor="#e581395a"] ;
520 -> 521 ;
522 [label="log_view <= 7.21\ngini = 0.43\nsamples = 109\nvalue = [127, 59]\nclass = 0", fillcolor="#e5813989"] ;
521 -> 522 ;
523 [label="gini = 0.0\nsamples = 2\nvalue = [0, 4]\nclass = 1", fillcolor="#399de5ff"] ;
522 -> 523 ;
524 [label="log_view <= 11.24\ngini = 0.42\nsamples = 107\nvalue = [127, 55]\nclass = 0", fillcolor="#e5813991"] ;
522 -> 524 ;
525 [label="log_view <= 10.09\ngini = 0.26\nsamples = 38\nvalue = [56, 10]\nclass = 0", fillcolor="#e58139d1"] ;
524 -> 525 ;
526 [label="log_view <= 9.25\ngini = 0.4\nsamples = 18\nvalue = [21, 8]\nclass = 0", fillcolor="#e581399e"] ;
525 -> 526 ;
527 [label="log_view <= 8.18\ngini = 0.11\nsamples = 10\nvalue = [16, 1]\nclass = 0", fillcolor="#e58139ef"] ;
526 -> 527 ;
528 [label="gini = 0.0\nsamples = 4\nvalue = [8, 0]\nclass = 0", fillcolor="#e58139ff"] ;
527 -> 528 ;
529 [label="log_view <= 8.52\ngini = 0.2\nsamples = 6\nvalue = [8, 1]\nclass = 0", fillcolor="#e58139df"] ;
527 -> 529 ;
530 [label="gini = 0.0\nsamples = 1\nvalue = [0, 1]\nclass = 1", fillcolor="#399de5ff"] ;
529 -> 530 ;
531 [label="gini = 0.0\nsamples = 5\nvalue = [8, 0]\nclass = 0", fillcolor="#e58139ff"] ;
529 -> 531 ;
532 [label="up_time <= 814.5\ngini = 0.49\nsamples = 8\nvalue = [5, 7]\nclass = 1", fillcolor="#399de549"] ;
526 -> 532 ;
533 [label="up_time <= 464.5\ngini = 0.28\nsamples = 4\nvalue = [1, 5]\nclass = 1", fillcolor="#399de5cc"] ;
532 -> 533 ;
534 [label="log_view <= 9.9\ngini = 0.5\nsamples = 2\nvalue = [1, 1]\nclass = 0", fillcolor="#e5813900"] ;
533 -> 534 ;
535 [label="gini = 0.0\nsamples = 1\nvalue = [1, 0]\nclass = 0", fillcolor="#e58139ff"] ;
534 -> 535 ;
536 [label="gini = 0.0\nsamples = 1\nvalue = [0, 1]\nclass = 1", fillcolor="#399de5ff"] ;
534 -> 536 ;
537 [label="gini = 0.0\nsamples = 2\nvalue = [0, 4]\nclass = 1", fillcolor="#399de5ff"] ;
533 -> 537 ;
538 [label="log_view <= 9.4\ngini = 0.44\nsamples = 4\nvalue = [4, 2]\nclass = 0", fillcolor="#e581397f"] ;
532 -> 538 ;
539 [label="gini = 0.0\nsamples = 1\nvalue = [0, 2]\nclass = 1", fillcolor="#399de5ff"] ;
538 -> 539 ;
540 [label="gini = 0.0\nsamples = 3\nvalue = [4, 0]\nclass = 0", fillcolor="#e58139ff"] ;
538 -> 540 ;
541 [label="up_time <= 2869.5\ngini = 0.1\nsamples = 20\nvalue = [35, 2]\nclass = 0", fillcolor="#e58139f0"] ;
525 -> 541 ;
542 [label="up_time <= 1111.0\ngini = 0.05\nsamples = 19\nvalue = [35, 1]\nclass = 0", fillcolor="#e58139f8"] ;
541 -> 542 ;
543 [label="gini = 0.0\nsamples = 15\nvalue = [30, 0]\nclass = 0", fillcolor="#e58139ff"] ;
542 -> 543 ;
544 [label="up_time <= 1332.5\ngini = 0.28\nsamples = 4\nvalue = [5, 1]\nclass = 0", fillcolor="#e58139cc"] ;
542 -> 544 ;
545 [label="gini = 0.0\nsamples = 1\nvalue = [0, 1]\nclass = 1", fillcolor="#399de5ff"] ;
544 -> 545 ;
546 [label="gini = 0.0\nsamples = 3\nvalue = [5, 0]\nclass = 0", fillcolor="#e58139ff"] ;
544 -> 546 ;
547 [label="gini = 0.0\nsamples = 1\nvalue = [0, 1]\nclass = 1", fillcolor="#399de5ff"] ;
541 -> 547 ;
548 [label="up_time <= 2579.0\ngini = 0.47\nsamples = 69\nvalue = [71, 45]\nclass = 0", fillcolor="#e581395d"] ;
524 -> 548 ;
549 [label="up_time <= 682.0\ngini = 0.44\nsamples = 62\nvalue = [71, 35]\nclass = 0", fillcolor="#e5813981"] ;
548 -> 549 ;
550 [label="up_time <= 391.5\ngini = 0.5\nsamples = 29\nvalue = [22, 24]\nclass = 1", fillcolor="#399de515"] ;
549 -> 550 ;
551 [label="log_view <= 11.94\ngini = 0.36\nsamples = 11\nvalue = [10, 3]\nclass = 0", fillcolor="#e58139b3"] ;
550 -> 551 ;
552 [label="log_view <= 11.47\ngini = 0.44\nsamples = 3\nvalue = [1, 2]\nclass = 1", fillcolor="#399de57f"] ;
551 -> 552 ;
553 [label="gini = 0.0\nsamples = 1\nvalue = [0, 1]\nclass = 1", fillcolor="#399de5ff"] ;
552 -> 553 ;
554 [label="log_view <= 11.81\ngini = 0.5\nsamples = 2\nvalue = [1, 1]\nclass = 0", fillcolor="#e5813900"] ;
552 -> 554 ;
555 [label="gini = 0.0\nsamples = 1\nvalue = [1, 0]\nclass = 0", fillcolor="#e58139ff"] ;
554 -> 555 ;
556 [label="gini = 0.0\nsamples = 1\nvalue = [0, 1]\nclass = 1", fillcolor="#399de5ff"] ;
554 -> 556 ;
557 [label="log_view <= 13.35\ngini = 0.18\nsamples = 8\nvalue = [9, 1]\nclass = 0", fillcolor="#e58139e3"] ;
551 -> 557 ;
558 [label="gini = 0.0\nsamples = 7\nvalue = [9, 0]\nclass = 0", fillcolor="#e58139ff"] ;
557 -> 558 ;
559 [label="gini = 0.0\nsamples = 1\nvalue = [0, 1]\nclass = 1", fillcolor="#399de5ff"] ;
557 -> 559 ;
560 [label="log_view <= 12.67\ngini = 0.46\nsamples = 18\nvalue = [12, 21]\nclass = 1", fillcolor="#399de56d"] ;
550 -> 560 ;
561 [label="up_time <= 664.0\ngini = 0.36\nsamples = 12\nvalue = [5, 16]\nclass = 1", fillcolor="#399de5af"] ;
560 -> 561 ;
562 [label="up_time <= 449.0\ngini = 0.23\nsamples = 8\nvalue = [2, 13]\nclass = 1", fillcolor="#399de5d8"] ;
561 -> 562 ;
563 [label="log_view <= 12.36\ngini = 0.48\nsamples = 3\nvalue = [2, 3]\nclass = 1", fillcolor="#399de555"] ;
562 -> 563 ;
564 [label="gini = 0.0\nsamples = 2\nvalue = [2, 0]\nclass = 0", fillcolor="#e58139ff"] ;
563 -> 564 ;
565 [label="gini = 0.0\nsamples = 1\nvalue = [0, 3]\nclass = 1", fillcolor="#399de5ff"] ;
563 -> 565 ;
566 [label="gini = 0.0\nsamples = 5\nvalue = [0, 10]\nclass = 1", fillcolor="#399de5ff"] ;
562 -> 566 ;
567 [label="up_time <= 671.0\ngini = 0.5\nsamples = 4\nvalue = [3, 3]\nclass = 0", fillcolor="#e5813900"] ;
561 -> 567 ;
568 [label="gini = 0.0\nsamples = 2\nvalue = [2, 0]\nclass = 0", fillcolor="#e58139ff"] ;
567 -> 568 ;
569 [label="log_view <= 12.03\ngini = 0.38\nsamples = 2\nvalue = [1, 3]\nclass = 1", fillcolor="#399de5aa"] ;
567 -> 569 ;
570 [label="gini = 0.0\nsamples = 1\nvalue = [0, 3]\nclass = 1", fillcolor="#399de5ff"] ;
569 -> 570 ;
571 [label="gini = 0.0\nsamples = 1\nvalue = [1, 0]\nclass = 0", fillcolor="#e58139ff"] ;
569 -> 571 ;
572 [label="up_time <= 430.0\ngini = 0.49\nsamples = 6\nvalue = [7, 5]\nclass = 0", fillcolor="#e5813949"] ;
560 -> 572 ;
573 [label="gini = 0.0\nsamples = 1\nvalue = [0, 2]\nclass = 1", fillcolor="#399de5ff"] ;
572 -> 573 ;
574 [label="up_time <= 591.0\ngini = 0.42\nsamples = 5\nvalue = [7, 3]\nclass = 0", fillcolor="#e5813992"] ;
572 -> 574 ;
575 [label="up_time <= 486.0\ngini = 0.49\nsamples = 4\nvalue = [4, 3]\nclass = 0", fillcolor="#e5813940"] ;
574 -> 575 ;
576 [label="up_time <= 440.5\ngini = 0.44\nsamples = 3\nvalue = [4, 2]\nclass = 0", fillcolor="#e581397f"] ;
575 -> 576 ;
577 [label="log_view <= 12.88\ngini = 0.5\nsamples = 2\nvalue = [2, 2]\nclass = 0", fillcolor="#e5813900"] ;
576 -> 577 ;
578 [label="gini = 0.0\nsamples = 1\nvalue = [2, 0]\nclass = 0", fillcolor="#e58139ff"] ;
577 -> 578 ;
579 [label="gini = 0.0\nsamples = 1\nvalue = [0, 2]\nclass = 1", fillcolor="#399de5ff"] ;
577 -> 579 ;
580 [label="gini = 0.0\nsamples = 1\nvalue = [2, 0]\nclass = 0", fillcolor="#e58139ff"] ;
576 -> 580 ;
581 [label="gini = 0.0\nsamples = 1\nvalue = [0, 1]\nclass = 1", fillcolor="#399de5ff"] ;
575 -> 581 ;
582 [label="gini = 0.0\nsamples = 1\nvalue = [3, 0]\nclass = 0", fillcolor="#e58139ff"] ;
574 -> 582 ;
583 [label="log_view <= 12.56\ngini = 0.3\nsamples = 33\nvalue = [49, 11]\nclass = 0", fillcolor="#e58139c6"] ;
549 -> 583 ;
584 [label="log_view <= 12.28\ngini = 0.07\nsamples = 15\nvalue = [26, 1]\nclass = 0", fillcolor="#e58139f5"] ;
583 -> 584 ;
585 [label="gini = 0.0\nsamples = 9\nvalue = [17, 0]\nclass = 0", fillcolor="#e58139ff"] ;
584 -> 585 ;
586 [label="up_time <= 1171.0\ngini = 0.18\nsamples = 6\nvalue = [9, 1]\nclass = 0", fillcolor="#e58139e3"] ;
584 -> 586 ;
587 [label="gini = 0.0\nsamples = 4\nvalue = [7, 0]\nclass = 0", fillcolor="#e58139ff"] ;
586 -> 587 ;
588 [label="log_view <= 12.35\ngini = 0.44\nsamples = 2\nvalue = [2, 1]\nclass = 0", fillcolor="#e581397f"] ;
586 -> 588 ;
589 [label="gini = 0.0\nsamples = 1\nvalue = [0, 1]\nclass = 1", fillcolor="#399de5ff"] ;
588 -> 589 ;
590 [label="gini = 0.0\nsamples = 1\nvalue = [2, 0]\nclass = 0", fillcolor="#e58139ff"] ;
588 -> 590 ;
591 [label="up_time <= 2043.5\ngini = 0.42\nsamples = 18\nvalue = [23, 10]\nclass = 0", fillcolor="#e5813990"] ;
583 -> 591 ;
592 [label="log_view <= 13.09\ngini = 0.47\nsamples = 15\nvalue = [17, 10]\nclass = 0", fillcolor="#e5813969"] ;
591 -> 592 ;
593 [label="log_view <= 12.94\ngini = 0.48\nsamples = 9\nvalue = [6, 9]\nclass = 1", fillcolor="#399de555"] ;
592 -> 593 ;
594 [label="up_time <= 700.5\ngini = 0.44\nsamples = 4\nvalue = [4, 2]\nclass = 0", fillcolor="#e581397f"] ;
593 -> 594 ;
595 [label="gini = 0.0\nsamples = 1\nvalue = [2, 0]\nclass = 0", fillcolor="#e58139ff"] ;
594 -> 595 ;
596 [label="log_view <= 12.8\ngini = 0.5\nsamples = 3\nvalue = [2, 2]\nclass = 0", fillcolor="#e5813900"] ;
594 -> 596 ;
597 [label="gini = 0.0\nsamples = 2\nvalue = [0, 2]\nclass = 1", fillcolor="#399de5ff"] ;
596 -> 597 ;
598 [label="gini = 0.0\nsamples = 1\nvalue = [2, 0]\nclass = 0", fillcolor="#e58139ff"] ;
596 -> 598 ;
599 [label="up_time <= 835.5\ngini = 0.35\nsamples = 5\nvalue = [2, 7]\nclass = 1", fillcolor="#399de5b6"] ;
593 -> 599 ;
600 [label="up_time <= 770.5\ngini = 0.5\nsamples = 2\nvalue = [2, 2]\nclass = 0", fillcolor="#e5813900"] ;
599 -> 600 ;
601 [label="gini = 0.0\nsamples = 1\nvalue = [0, 2]\nclass = 1", fillcolor="#399de5ff"] ;
600 -> 601 ;
602 [label="gini = 0.0\nsamples = 1\nvalue = [2, 0]\nclass = 0", fillcolor="#e58139ff"] ;
600 -> 602 ;
603 [label="gini = 0.0\nsamples = 3\nvalue = [0, 5]\nclass = 1", fillcolor="#399de5ff"] ;
599 -> 603 ;
604 [label="log_view <= 13.24\ngini = 0.15\nsamples = 6\nvalue = [11, 1]\nclass = 0", fillcolor="#e58139e8"] ;
592 -> 604 ;
605 [label="gini = 0.0\nsamples = 3\nvalue = [6, 0]\nclass = 0", fillcolor="#e58139ff"] ;
604 -> 605 ;
606 [label="log_view <= 13.27\ngini = 0.28\nsamples = 3\nvalue = [5, 1]\nclass = 0", fillcolor="#e58139cc"] ;
604 -> 606 ;
607 [label="gini = 0.0\nsamples = 1\nvalue = [0, 1]\nclass = 1", fillcolor="#399de5ff"] ;
606 -> 607 ;
608 [label="gini = 0.0\nsamples = 2\nvalue = [5, 0]\nclass = 0", fillcolor="#e58139ff"] ;
606 -> 608 ;
609 [label="gini = 0.0\nsamples = 3\nvalue = [6, 0]\nclass = 0", fillcolor="#e58139ff"] ;
591 -> 609 ;
610 [label="gini = 0.0\nsamples = 7\nvalue = [0, 10]\nclass = 1", fillcolor="#399de5ff"] ;
548 -> 610 ;
611 [label="log_view <= 14.41\ngini = 0.47\nsamples = 43\nvalue = [24, 39]\nclass = 1", fillcolor="#399de562"] ;
521 -> 611 ;
612 [label="log_view <= 13.92\ngini = 0.44\nsamples = 39\nvalue = [18, 38]\nclass = 1", fillcolor="#399de586"] ;
611 -> 612 ;
613 [label="up_time <= 133.0\ngini = 0.49\nsamples = 18\nvalue = [13, 16]\nclass = 1", fillcolor="#399de530"] ;
612 -> 613 ;
614 [label="gini = 0.0\nsamples = 4\nvalue = [5, 0]\nclass = 0", fillcolor="#e58139ff"] ;
613 -> 614 ;
615 [label="log_view <= 13.88\ngini = 0.44\nsamples = 14\nvalue = [8, 16]\nclass = 1", fillcolor="#399de57f"] ;
613 -> 615 ;
616 [label="up_time <= 508.0\ngini = 0.32\nsamples = 12\nvalue = [4, 16]\nclass = 1", fillcolor="#399de5bf"] ;
615 -> 616 ;
617 [label="gini = 0.0\nsamples = 4\nvalue = [0, 9]\nclass = 1", fillcolor="#399de5ff"] ;
616 -> 617 ;
618 [label="log_view <= 13.76\ngini = 0.46\nsamples = 8\nvalue = [4, 7]\nclass = 1", fillcolor="#399de56d"] ;
616 -> 618 ;
619 [label="log_view <= 13.41\ngini = 0.49\nsamples = 5\nvalue = [4, 3]\nclass = 0", fillcolor="#e5813940"] ;
618 -> 619 ;
620 [label="gini = 0.0\nsamples = 1\nvalue = [0, 2]\nclass = 1", fillcolor="#399de5ff"] ;
619 -> 620 ;
621 [label="log_view <= 13.47\ngini = 0.32\nsamples = 4\nvalue = [4, 1]\nclass = 0", fillcolor="#e58139bf"] ;
619 -> 621 ;
622 [label="gini = 0.0\nsamples = 1\nvalue = [2, 0]\nclass = 0", fillcolor="#e58139ff"] ;
621 -> 622 ;
623 [label="log_view <= 13.58\ngini = 0.44\nsamples = 3\nvalue = [2, 1]\nclass = 0", fillcolor="#e581397f"] ;
621 -> 623 ;
624 [label="gini = 0.0\nsamples = 1\nvalue = [0, 1]\nclass = 1", fillcolor="#399de5ff"] ;
623 -> 624 ;
625 [label="gini = 0.0\nsamples = 2\nvalue = [2, 0]\nclass = 0", fillcolor="#e58139ff"] ;
623 -> 625 ;
626 [label="gini = 0.0\nsamples = 3\nvalue = [0, 4]\nclass = 1", fillcolor="#399de5ff"] ;
618 -> 626 ;
627 [label="gini = 0.0\nsamples = 2\nvalue = [4, 0]\nclass = 0", fillcolor="#e58139ff"] ;
615 -> 627 ;
628 [label="log_view <= 14.33\ngini = 0.3\nsamples = 21\nvalue = [5, 22]\nclass = 1", fillcolor="#399de5c5"] ;
612 -> 628 ;
629 [label="log_view <= 14.12\ngini = 0.38\nsamples = 15\nvalue = [5, 15]\nclass = 1", fillcolor="#399de5aa"] ;
628 -> 629 ;
630 [label="log_view <= 14.06\ngini = 0.14\nsamples = 10\nvalue = [1, 12]\nclass = 1", fillcolor="#399de5ea"] ;
629 -> 630 ;
631 [label="gini = 0.0\nsamples = 5\nvalue = [0, 6]\nclass = 1", fillcolor="#399de5ff"] ;
630 -> 631 ;
632 [label="up_time <= 1276.5\ngini = 0.24\nsamples = 5\nvalue = [1, 6]\nclass = 1", fillcolor="#399de5d4"] ;
630 -> 632 ;
633 [label="gini = 0.0\nsamples = 4\nvalue = [0, 6]\nclass = 1", fillcolor="#399de5ff"] ;
632 -> 633 ;
634 [label="gini = 0.0\nsamples = 1\nvalue = [1, 0]\nclass = 0", fillcolor="#e58139ff"] ;
632 -> 634 ;
635 [label="up_time <= 361.0\ngini = 0.49\nsamples = 5\nvalue = [4, 3]\nclass = 0", fillcolor="#e5813940"] ;
629 -> 635 ;
636 [label="gini = 0.0\nsamples = 1\nvalue = [0, 2]\nclass = 1", fillcolor="#399de5ff"] ;
635 -> 636 ;
637 [label="log_view <= 14.17\ngini = 0.32\nsamples = 4\nvalue = [4, 1]\nclass = 0", fillcolor="#e58139bf"] ;
635 -> 637 ;
638 [label="gini = 0.0\nsamples = 2\nvalue = [3, 0]\nclass = 0", fillcolor="#e58139ff"] ;
637 -> 638 ;
639 [label="log_view <= 14.25\ngini = 0.5\nsamples = 2\nvalue = [1, 1]\nclass = 0", fillcolor="#e5813900"] ;
637 -> 639 ;
640 [label="gini = 0.0\nsamples = 1\nvalue = [0, 1]\nclass = 1", fillcolor="#399de5ff"] ;
639 -> 640 ;
641 [label="gini = 0.0\nsamples = 1\nvalue = [1, 0]\nclass = 0", fillcolor="#e58139ff"] ;
639 -> 641 ;
642 [label="gini = 0.0\nsamples = 6\nvalue = [0, 7]\nclass = 1", fillcolor="#399de5ff"] ;
628 -> 642 ;
643 [label="log_view <= 14.44\ngini = 0.24\nsamples = 4\nvalue = [6, 1]\nclass = 0", fillcolor="#e58139d4"] ;
611 -> 643 ;
644 [label="gini = 0.0\nsamples = 2\nvalue = [4, 0]\nclass = 0", fillcolor="#e58139ff"] ;
643 -> 644 ;
645 [label="up_time <= 378.0\ngini = 0.44\nsamples = 2\nvalue = [2, 1]\nclass = 0", fillcolor="#e581397f"] ;
643 -> 645 ;
646 [label="gini = 0.0\nsamples = 1\nvalue = [0, 1]\nclass = 1", fillcolor="#399de5ff"] ;
645 -> 646 ;
647 [label="gini = 0.0\nsamples = 1\nvalue = [2, 0]\nclass = 0", fillcolor="#e58139ff"] ;
645 -> 647 ;
648 [label="gini = 0.0\nsamples = 20\nvalue = [28, 0]\nclass = 0", fillcolor="#e58139ff"] ;
520 -> 648 ;
649 [label="audio <= 0.5\ngini = 0.16\nsamples = 247\nvalue = [34, 350]\nclass = 1", fillcolor="#399de5e6"] ;
519 -> 649 ;
650 [label="up_time <= 3797.5\ngini = 0.12\nsamples = 240\nvalue = [24, 350]\nclass = 1", fillcolor="#399de5ee"] ;
649 -> 650 ;
651 [label="up_time <= 2247.5\ngini = 0.11\nsamples = 237\nvalue = [22, 347]\nclass = 1", fillcolor="#399de5ef"] ;
650 -> 651 ;
652 [label="up_time <= 2235.0\ngini = 0.15\nsamples = 154\nvalue = [19, 222]\nclass = 1", fillcolor="#399de5e9"] ;
651 -> 652 ;
653 [label="log_view <= 15.91\ngini = 0.13\nsamples = 153\nvalue = [16, 222]\nclass = 1", fillcolor="#399de5ed"] ;
652 -> 653 ;
654 [label="log_view <= 15.84\ngini = 0.27\nsamples = 50\nvalue = [13, 69]\nclass = 1", fillcolor="#399de5cf"] ;
653 -> 654 ;
655 [label="up_time <= 2198.5\ngini = 0.19\nsamples = 48\nvalue = [8, 69]\nclass = 1", fillcolor="#399de5e1"] ;
654 -> 655 ;
656 [label="up_time <= 267.0\ngini = 0.17\nsamples = 47\nvalue = [7, 69]\nclass = 1", fillcolor="#399de5e5"] ;
655 -> 656 ;
657 [label="gini = 0.0\nsamples = 7\nvalue = [0, 16]\nclass = 1", fillcolor="#399de5ff"] ;
656 -> 657 ;
658 [label="up_time <= 294.0\ngini = 0.21\nsamples = 40\nvalue = [7, 53]\nclass = 1", fillcolor="#399de5dd"] ;
656 -> 658 ;
659 [label="gini = 0.0\nsamples = 1\nvalue = [1, 0]\nclass = 0", fillcolor="#e58139ff"] ;
658 -> 659 ;
660 [label="up_time <= 505.5\ngini = 0.18\nsamples = 39\nvalue = [6, 53]\nclass = 1", fillcolor="#399de5e2"] ;
658 -> 660 ;
661 [label="up_time <= 476.5\ngini = 0.38\nsamples = 5\nvalue = [2, 6]\nclass = 1", fillcolor="#399de5aa"] ;
660 -> 661 ;
662 [label="gini = 0.0\nsamples = 4\nvalue = [0, 6]\nclass = 1", fillcolor="#399de5ff"] ;
661 -> 662 ;
663 [label="gini = 0.0\nsamples = 1\nvalue = [2, 0]\nclass = 0", fillcolor="#e58139ff"] ;
661 -> 663 ;
664 [label="up_time <= 773.5\ngini = 0.14\nsamples = 34\nvalue = [4, 47]\nclass = 1", fillcolor="#399de5e9"] ;
660 -> 664 ;
665 [label="gini = 0.0\nsamples = 11\nvalue = [0, 20]\nclass = 1", fillcolor="#399de5ff"] ;
664 -> 665 ;
666 [label="log_view <= 14.66\ngini = 0.22\nsamples = 23\nvalue = [4, 27]\nclass = 1", fillcolor="#399de5d9"] ;
664 -> 666 ;
667 [label="gini = 0.0\nsamples = 1\nvalue = [1, 0]\nclass = 0", fillcolor="#e58139ff"] ;
666 -> 667 ;
668 [label="log_view <= 15.1\ngini = 0.18\nsamples = 22\nvalue = [3, 27]\nclass = 1", fillcolor="#399de5e3"] ;
666 -> 668 ;
669 [label="gini = 0.0\nsamples = 11\nvalue = [0, 14]\nclass = 1", fillcolor="#399de5ff"] ;
668 -> 669 ;
670 [label="log_view <= 15.15\ngini = 0.3\nsamples = 11\nvalue = [3, 13]\nclass = 1", fillcolor="#399de5c4"] ;
668 -> 670 ;
671 [label="gini = 0.0\nsamples = 2\nvalue = [3, 0]\nclass = 0", fillcolor="#e58139ff"] ;
670 -> 671 ;
672 [label="gini = 0.0\nsamples = 9\nvalue = [0, 13]\nclass = 1", fillcolor="#399de5ff"] ;
670 -> 672 ;
673 [label="gini = 0.0\nsamples = 1\nvalue = [1, 0]\nclass = 0", fillcolor="#e58139ff"] ;
655 -> 673 ;
674 [label="gini = 0.0\nsamples = 2\nvalue = [5, 0]\nclass = 0", fillcolor="#e58139ff"] ;
654 -> 674 ;
675 [label="up_time <= 251.5\ngini = 0.04\nsamples = 103\nvalue = [3, 153]\nclass = 1", fillcolor="#399de5fa"] ;
653 -> 675 ;
676 [label="up_time <= 213.5\ngini = 0.15\nsamples = 8\nvalue = [1, 11]\nclass = 1", fillcolor="#399de5e8"] ;
675 -> 676 ;
677 [label="gini = 0.0\nsamples = 7\nvalue = [0, 11]\nclass = 1", fillcolor="#399de5ff"] ;
676 -> 677 ;
678 [label="gini = 0.0\nsamples = 1\nvalue = [1, 0]\nclass = 0", fillcolor="#e58139ff"] ;
676 -> 678 ;
679 [label="up_time <= 1168.5\ngini = 0.03\nsamples = 95\nvalue = [2, 142]\nclass = 1", fillcolor="#399de5fb"] ;
675 -> 679 ;
680 [label="gini = 0.0\nsamples = 49\nvalue = [0, 77]\nclass = 1", fillcolor="#399de5ff"] ;
679 -> 680 ;
681 [label="log_view <= 17.55\ngini = 0.06\nsamples = 46\nvalue = [2, 65]\nclass = 1", fillcolor="#399de5f7"] ;
679 -> 681 ;
682 [label="gini = 0.0\nsamples = 21\nvalue = [0, 29]\nclass = 1", fillcolor="#399de5ff"] ;
681 -> 682 ;
683 [label="log_view <= 17.79\ngini = 0.1\nsamples = 25\nvalue = [2, 36]\nclass = 1", fillcolor="#399de5f1"] ;
681 -> 683 ;
684 [label="gini = 0.0\nsamples = 1\nvalue = [1, 0]\nclass = 0", fillcolor="#e58139ff"] ;
683 -> 684 ;
685 [label="up_time <= 1365.0\ngini = 0.05\nsamples = 24\nvalue = [1, 36]\nclass = 1", fillcolor="#399de5f8"] ;
683 -> 685 ;
686 [label="log_view <= 18.73\ngini = 0.32\nsamples = 5\nvalue = [1, 4]\nclass = 1", fillcolor="#399de5bf"] ;
685 -> 686 ;
687 [label="log_view <= 18.56\ngini = 0.5\nsamples = 2\nvalue = [1, 1]\nclass = 0", fillcolor="#e5813900"] ;
686 -> 687 ;
688 [label="gini = 0.0\nsamples = 1\nvalue = [0, 1]\nclass = 1", fillcolor="#399de5ff"] ;
687 -> 688 ;
689 [label="gini = 0.0\nsamples = 1\nvalue = [1, 0]\nclass = 0", fillcolor="#e58139ff"] ;
687 -> 689 ;
690 [label="gini = 0.0\nsamples = 3\nvalue = [0, 3]\nclass = 1", fillcolor="#399de5ff"] ;
686 -> 690 ;
691 [label="gini = 0.0\nsamples = 19\nvalue = [0, 32]\nclass = 1", fillcolor="#399de5ff"] ;
685 -> 691 ;
692 [label="gini = 0.0\nsamples = 1\nvalue = [3, 0]\nclass = 0", fillcolor="#e58139ff"] ;
652 -> 692 ;
693 [label="log_view <= 16.66\ngini = 0.05\nsamples = 83\nvalue = [3, 125]\nclass = 1", fillcolor="#399de5f9"] ;
651 -> 693 ;
694 [label="log_view <= 16.64\ngini = 0.12\nsamples = 29\nvalue = [3, 45]\nclass = 1", fillcolor="#399de5ee"] ;
693 -> 694 ;
695 [label="log_view <= 15.5\ngini = 0.08\nsamples = 28\nvalue = [2, 45]\nclass = 1", fillcolor="#399de5f4"] ;
694 -> 695 ;
696 [label="gini = 0.0\nsamples = 9\nvalue = [0, 18]\nclass = 1", fillcolor="#399de5ff"] ;
695 -> 696 ;
697 [label="log_view <= 15.54\ngini = 0.13\nsamples = 19\nvalue = [2, 27]\nclass = 1", fillcolor="#399de5ec"] ;
695 -> 697 ;
698 [label="gini = 0.0\nsamples = 1\nvalue = [1, 0]\nclass = 0", fillcolor="#e58139ff"] ;
697 -> 698 ;
699 [label="up_time <= 3053.0\ngini = 0.07\nsamples = 18\nvalue = [1, 27]\nclass = 1", fillcolor="#399de5f6"] ;
697 -> 699 ;
700 [label="log_view <= 16.21\ngini = 0.2\nsamples = 6\nvalue = [1, 8]\nclass = 1", fillcolor="#399de5df"] ;
699 -> 700 ;
701 [label="gini = 0.0\nsamples = 4\nvalue = [0, 7]\nclass = 1", fillcolor="#399de5ff"] ;
700 -> 701 ;
702 [label="log_view <= 16.4\ngini = 0.5\nsamples = 2\nvalue = [1, 1]\nclass = 0", fillcolor="#e5813900"] ;
700 -> 702 ;
703 [label="gini = 0.0\nsamples = 1\nvalue = [1, 0]\nclass = 0", fillcolor="#e58139ff"] ;
702 -> 703 ;
704 [label="gini = 0.0\nsamples = 1\nvalue = [0, 1]\nclass = 1", fillcolor="#399de5ff"] ;
702 -> 704 ;
705 [label="gini = 0.0\nsamples = 12\nvalue = [0, 19]\nclass = 1", fillcolor="#399de5ff"] ;
699 -> 705 ;
706 [label="gini = 0.0\nsamples = 1\nvalue = [1, 0]\nclass = 0", fillcolor="#e58139ff"] ;
694 -> 706 ;
707 [label="gini = 0.0\nsamples = 54\nvalue = [0, 80]\nclass = 1", fillcolor="#399de5ff"] ;
693 -> 707 ;
708 [label="log_view <= 15.67\ngini = 0.48\nsamples = 3\nvalue = [2, 3]\nclass = 1", fillcolor="#399de555"] ;
650 -> 708 ;
709 [label="log_view <= 15.01\ngini = 0.44\nsamples = 2\nvalue = [2, 1]\nclass = 0", fillcolor="#e581397f"] ;
708 -> 709 ;
710 [label="gini = 0.0\nsamples = 1\nvalue = [0, 1]\nclass = 1", fillcolor="#399de5ff"] ;
709 -> 710 ;
711 [label="gini = 0.0\nsamples = 1\nvalue = [2, 0]\nclass = 0", fillcolor="#e58139ff"] ;
709 -> 711 ;
712 [label="gini = 0.0\nsamples = 1\nvalue = [0, 2]\nclass = 1", fillcolor="#399de5ff"] ;
708 -> 712 ;
713 [label="gini = 0.0\nsamples = 7\nvalue = [10, 0]\nclass = 0", fillcolor="#e58139ff"] ;
649 -> 713 ;
714 [label="up_time <= 763.5\ngini = 0.02\nsamples = 50\nvalue = [1, 81]\nclass = 1", fillcolor="#399de5fc"] ;
518 -> 714 ;
715 [label="up_time <= 723.5\ngini = 0.1\nsamples = 14\nvalue = [1, 17]\nclass = 1", fillcolor="#399de5f0"] ;
714 -> 715 ;
716 [label="gini = 0.0\nsamples = 13\nvalue = [0, 17]\nclass = 1", fillcolor="#399de5ff"] ;
715 -> 716 ;
717 [label="gini = 0.0\nsamples = 1\nvalue = [1, 0]\nclass = 0", fillcolor="#e58139ff"] ;
715 -> 717 ;
718 [label="gini = 0.0\nsamples = 36\nvalue = [0, 64]\nclass = 1", fillcolor="#399de5ff"] ;
714 -> 718 ;
719 [label="gini = 0.0\nsamples = 2\nvalue = [0, 3]\nclass = 1", fillcolor="#399de5ff"] ;
517 -> 719 ;
720 [label="audio <= 0.5\ngini = 0.15\nsamples = 302\nvalue = [37, 423]\nclass = 1", fillcolor="#399de5e9"] ;
516 -> 720 ;
721 [label="log_view <= 9.52\ngini = 0.04\nsamples = 281\nvalue = [8, 423]\nclass = 1", fillcolor="#399de5fa"] ;
720 -> 721 ;
722 [label="gini = 0.0\nsamples = 1\nvalue = [2, 0]\nclass = 0", fillcolor="#e58139ff"] ;
721 -> 722 ;
723 [label="official music <= 0.5\ngini = 0.03\nsamples = 280\nvalue = [6, 423]\nclass = 1", fillcolor="#399de5fb"] ;
721 -> 723 ;
724 [label="official video <= 0.5\ngini = 0.05\nsamples = 138\nvalue = [5, 202]\nclass = 1", fillcolor="#399de5f9"] ;
723 -> 724 ;
725 [label="log_view <= 12.39\ngini = 0.06\nsamples = 21\nvalue = [1, 31]\nclass = 1", fillcolor="#399de5f7"] ;
724 -> 725 ;
726 [label="log_view <= 11.98\ngini = 0.38\nsamples = 2\nvalue = [1, 3]\nclass = 1", fillcolor="#399de5aa"] ;
725 -> 726 ;
727 [label="gini = 0.0\nsamples = 1\nvalue = [0, 3]\nclass = 1", fillcolor="#399de5ff"] ;
726 -> 727 ;
728 [label="gini = 0.0\nsamples = 1\nvalue = [1, 0]\nclass = 0", fillcolor="#e58139ff"] ;
726 -> 728 ;
729 [label="gini = 0.0\nsamples = 19\nvalue = [0, 28]\nclass = 1", fillcolor="#399de5ff"] ;
725 -> 729 ;
730 [label="log_view <= 13.78\ngini = 0.04\nsamples = 117\nvalue = [4, 171]\nclass = 1", fillcolor="#399de5f9"] ;
724 -> 730 ;
731 [label="up_time <= 522.5\ngini = 0.17\nsamples = 20\nvalue = [3, 30]\nclass = 1", fillcolor="#399de5e6"] ;
730 -> 731 ;
732 [label="gini = 0.0\nsamples = 12\nvalue = [0, 18]\nclass = 1", fillcolor="#399de5ff"] ;
731 -> 732 ;
733 [label="up_time <= 1202.0\ngini = 0.32\nsamples = 8\nvalue = [3, 12]\nclass = 1", fillcolor="#399de5bf"] ;
731 -> 733 ;
734 [label="log_view <= 13.72\ngini = 0.38\nsamples = 3\nvalue = [3, 1]\nclass = 0", fillcolor="#e58139aa"] ;
733 -> 734 ;
735 [label="up_time <= 765.0\ngini = 0.5\nsamples = 2\nvalue = [1, 1]\nclass = 0", fillcolor="#e5813900"] ;
734 -> 735 ;
736 [label="gini = 0.0\nsamples = 1\nvalue = [0, 1]\nclass = 1", fillcolor="#399de5ff"] ;
735 -> 736 ;
737 [label="gini = 0.0\nsamples = 1\nvalue = [1, 0]\nclass = 0", fillcolor="#e58139ff"] ;
735 -> 737 ;
738 [label="gini = 0.0\nsamples = 1\nvalue = [2, 0]\nclass = 0", fillcolor="#e58139ff"] ;
734 -> 738 ;
739 [label="gini = 0.0\nsamples = 5\nvalue = [0, 11]\nclass = 1", fillcolor="#399de5ff"] ;
733 -> 739 ;
740 [label="up_time <= 718.0\ngini = 0.01\nsamples = 97\nvalue = [1, 141]\nclass = 1", fillcolor="#399de5fd"] ;
730 -> 740 ;
741 [label="log_view <= 15.42\ngini = 0.05\nsamples = 29\nvalue = [1, 40]\nclass = 1", fillcolor="#399de5f9"] ;
740 -> 741 ;
742 [label="up_time <= 595.5\ngini = 0.11\nsamples = 10\nvalue = [1, 16]\nclass = 1", fillcolor="#399de5ef"] ;
741 -> 742 ;
743 [label="gini = 0.0\nsamples = 9\nvalue = [0, 16]\nclass = 1", fillcolor="#399de5ff"] ;
742 -> 743 ;
744 [label="gini = 0.0\nsamples = 1\nvalue = [1, 0]\nclass = 0", fillcolor="#e58139ff"] ;
742 -> 744 ;
745 [label="gini = 0.0\nsamples = 19\nvalue = [0, 24]\nclass = 1", fillcolor="#399de5ff"] ;
741 -> 745 ;
746 [label="gini = 0.0\nsamples = 68\nvalue = [0, 101]\nclass = 1", fillcolor="#399de5ff"] ;
740 -> 746 ;
747 [label="up_time <= 1370.0\ngini = 0.01\nsamples = 142\nvalue = [1, 221]\nclass = 1", fillcolor="#399de5fe"] ;
723 -> 747 ;
748 [label="gini = 0.0\nsamples = 94\nvalue = [0, 145]\nclass = 1", fillcolor="#399de5ff"] ;
747 -> 748 ;
749 [label="up_time <= 1412.5\ngini = 0.03\nsamples = 48\nvalue = [1, 76]\nclass = 1", fillcolor="#399de5fc"] ;
747 -> 749 ;
750 [label="gini = 0.0\nsamples = 1\nvalue = [1, 0]\nclass = 0", fillcolor="#e58139ff"] ;
749 -> 750 ;
751 [label="gini = 0.0\nsamples = 47\nvalue = [0, 76]\nclass = 1", fillcolor="#399de5ff"] ;
749 -> 751 ;
752 [label="gini = 0.0\nsamples = 21\nvalue = [29, 0]\nclass = 0", fillcolor="#e58139ff"] ;
720 -> 752 ;
}